Sequence,emb_0,emb_1,emb_2,emb_3,emb_4,emb_5,emb_6,emb_7,emb_8,emb_9,emb_10,emb_11,emb_12,emb_13,emb_14,emb_15,emb_16,emb_17,emb_18,emb_19,emb_20,emb_21,emb_22,emb_23,emb_24,emb_25,emb_26,emb_27,emb_28,emb_29,emb_30,emb_31,emb_32,emb_33,emb_34,emb_35,emb_36,emb_37,emb_38,emb_39,emb_40,emb_41,emb_42,emb_43,emb_44,emb_45,emb_46,emb_47,emb_48,emb_49,emb_50,emb_51,emb_52,emb_53,emb_54,emb_55,emb_56,emb_57,emb_58,emb_59,emb_60,emb_61,emb_62,emb_63,emb_64,emb_65,emb_66,emb_67,emb_68,emb_69,emb_70,emb_71,emb_72,emb_73,emb_74,emb_75,emb_76,emb_77,emb_78,emb_79,emb_80,emb_81,emb_82,emb_83,emb_84,emb_85,emb_86,emb_87,emb_88,emb_89,emb_90,emb_91,emb_92,emb_93,emb_94,emb_95,emb_96,emb_97,emb_98,emb_99,emb_100,emb_101,emb_102,emb_103,emb_104,emb_105,emb_106,emb_107,emb_108,emb_109,emb_110,emb_111,emb_112,emb_113,emb_114,emb_115,emb_116,emb_117,emb_118,emb_119,emb_120,emb_121,emb_122,emb_123,emb_124,emb_125,emb_126,emb_127,emb_128,emb_129,emb_130,emb_131,emb_132,emb_133,emb_134,emb_135,emb_136,emb_137,emb_138,emb_139,emb_140,emb_141,emb_142,emb_143,emb_144,emb_145,emb_146,emb_147,emb_148,emb_149,emb_150,emb_151,emb_152,emb_153,emb_154,emb_155,emb_156,emb_157,emb_158,emb_159,emb_160,emb_161,emb_162,emb_163,emb_164,emb_165,emb_166,emb_167,emb_168,emb_169,emb_170,emb_171,emb_172,emb_173,emb_174,emb_175,emb_176,emb_177,emb_178,emb_179,emb_180,emb_181,emb_182,emb_183,emb_184,emb_185,emb_186,emb_187,emb_188,emb_189,emb_190,emb_191,emb_192,emb_193,emb_194,emb_195,emb_196,emb_197,emb_198,emb_199,emb_200,emb_201,emb_202,emb_203,emb_204,emb_205,emb_206,emb_207,emb_208,emb_209,emb_210,emb_211,emb_212,emb_213,emb_214,emb_215,emb_216,emb_217,emb_218,emb_219,emb_220,emb_221,emb_222,emb_223,emb_224,emb_225,emb_226,emb_227,emb_228,emb_229,emb_230,emb_231,emb_232,emb_233,emb_234,emb_235,emb_236,emb_237,emb_238,emb_239,emb_240,emb_241,emb_242,emb_243,emb_244,emb_245,emb_246,emb_247,emb_248,emb_249,emb_250,emb_251,emb_252,emb_253,emb_254,emb_255,emb_256,emb_257,emb_258,emb_259,emb_260,emb_261,emb_262,emb_263,emb_264,emb_265,emb_266,emb_267,emb_268,emb_269,emb_270,emb_271,emb_272,emb_273,emb_274,emb_275,emb_276,emb_277,emb_278,emb_279,emb_280,emb_281,emb_282,emb_283,emb_284,emb_285,emb_286,emb_287,emb_288,emb_289,emb_290,emb_291,emb_292,emb_293,emb_294,emb_295,emb_296,emb_297,emb_298,emb_299,emb_300,emb_301,emb_302,emb_303,emb_304,emb_305,emb_306,emb_307,emb_308,emb_309,emb_310,emb_311,emb_312,emb_313,emb_314,emb_315,emb_316,emb_317,emb_318,emb_319,emb_320,emb_321,emb_322,emb_323,emb_324,emb_325,emb_326,emb_327,emb_328,emb_329,emb_330,emb_331,emb_332,emb_333,emb_334,emb_335,emb_336,emb_337,emb_338,emb_339,emb_340,emb_341,emb_342,emb_343,emb_344,emb_345,emb_346,emb_347,emb_348,emb_349,emb_350,emb_351,emb_352,emb_353,emb_354,emb_355,emb_356,emb_357,emb_358,emb_359,emb_360,emb_361,emb_362,emb_363,emb_364,emb_365,emb_366,emb_367,emb_368,emb_369,emb_370,emb_371,emb_372,emb_373,emb_374,emb_375,emb_376,emb_377,emb_378,emb_379,emb_380,emb_381,emb_382,emb_383,emb_384,emb_385,emb_386,emb_387,emb_388,emb_389,emb_390,emb_391,emb_392,emb_393,emb_394,emb_395,emb_396,emb_397,emb_398,emb_399,emb_400,emb_401,emb_402,emb_403,emb_404,emb_405,emb_406,emb_407,emb_408,emb_409,emb_410,emb_411,emb_412,emb_413,emb_414,emb_415,emb_416,emb_417,emb_418,emb_419,emb_420,emb_421,emb_422,emb_423,emb_424,emb_425,emb_426,emb_427,emb_428,emb_429,emb_430,emb_431,emb_432,emb_433,emb_434,emb_435,emb_436,emb_437,emb_438,emb_439,emb_440,emb_441,emb_442,emb_443,emb_444,emb_445,emb_446,emb_447,emb_448,emb_449,emb_450,emb_451,emb_452,emb_453,emb_454,emb_455,emb_456,emb_457,emb_458,emb_459,emb_460,emb_461,emb_462,emb_463,emb_464,emb_465,emb_466,emb_467,emb_468,emb_469,emb_470,emb_471,emb_472,emb_473,emb_474,emb_475,emb_476,emb_477,emb_478,emb_479,emb_480,emb_481,emb_482,emb_483,emb_484,emb_485,emb_486,emb_487,emb_488,emb_489,emb_490,emb_491,emb_492,emb_493,emb_494,emb_495,emb_496,emb_497,emb_498,emb_499,emb_500,emb_501,emb_502,emb_503,emb_504,emb_505,emb_506,emb_507,emb_508,emb_509,emb_510,emb_511,emb_512,emb_513,emb_514,emb_515,emb_516,emb_517,emb_518,emb_519,emb_520,emb_521,emb_522,emb_523,emb_524,emb_525,emb_526,emb_527,emb_528,emb_529,emb_530,emb_531,emb_532,emb_533,emb_534,emb_535,emb_536,emb_537,emb_538,emb_539,emb_540,emb_541,emb_542,emb_543,emb_544,emb_545,emb_546,emb_547,emb_548,emb_549,emb_550,emb_551,emb_552,emb_553,emb_554,emb_555,emb_556,emb_557,emb_558,emb_559,emb_560,emb_561,emb_562,emb_563,emb_564,emb_565,emb_566,emb_567,emb_568,emb_569,emb_570,emb_571,emb_572,emb_573,emb_574,emb_575,emb_576,emb_577,emb_578,emb_579,emb_580,emb_581,emb_582,emb_583,emb_584,emb_585,emb_586,emb_587,emb_588,emb_589,emb_590,emb_591,emb_592,emb_593,emb_594,emb_595,emb_596,emb_597,emb_598,emb_599,emb_600,emb_601,emb_602,emb_603,emb_604,emb_605,emb_606,emb_607,emb_608,emb_609,emb_610,emb_611,emb_612,emb_613,emb_614,emb_615,emb_616,emb_617,emb_618,emb_619,emb_620,emb_621,emb_622,emb_623,emb_624,emb_625,emb_626,emb_627,emb_628,emb_629,emb_630,emb_631,emb_632,emb_633,emb_634,emb_635,emb_636,emb_637,emb_638,emb_639,emb_640,emb_641,emb_642,emb_643,emb_644,emb_645,emb_646,emb_647,emb_648,emb_649,emb_650,emb_651,emb_652,emb_653,emb_654,emb_655,emb_656,emb_657,emb_658,emb_659,emb_660,emb_661,emb_662,emb_663,emb_664,emb_665,emb_666,emb_667,emb_668,emb_669,emb_670,emb_671,emb_672,emb_673,emb_674,emb_675,emb_676,emb_677,emb_678,emb_679,emb_680,emb_681,emb_682,emb_683,emb_684,emb_685,emb_686,emb_687,emb_688,emb_689,emb_690,emb_691,emb_692,emb_693,emb_694,emb_695,emb_696,emb_697,emb_698,emb_699,emb_700,emb_701,emb_702,emb_703,emb_704,emb_705,emb_706,emb_707,emb_708,emb_709,emb_710,emb_711,emb_712,emb_713,emb_714,emb_715,emb_716,emb_717,emb_718,emb_719,emb_720,emb_721,emb_722,emb_723,emb_724,emb_725,emb_726,emb_727,emb_728,emb_729,emb_730,emb_731,emb_732,emb_733,emb_734,emb_735,emb_736,emb_737,emb_738,emb_739,emb_740,emb_741,emb_742,emb_743,emb_744,emb_745,emb_746,emb_747,emb_748,emb_749,emb_750,emb_751,emb_752,emb_753,emb_754,emb_755,emb_756,emb_757,emb_758,emb_759,emb_760,emb_761,emb_762,emb_763,emb_764,emb_765,emb_766,emb_767,emb_768,emb_769,emb_770,emb_771,emb_772,emb_773,emb_774,emb_775,emb_776,emb_777,emb_778,emb_779,emb_780,emb_781,emb_782,emb_783,emb_784,emb_785,emb_786,emb_787,emb_788,emb_789,emb_790,emb_791,emb_792,emb_793,emb_794,emb_795,emb_796,emb_797,emb_798,emb_799,emb_800,emb_801,emb_802,emb_803,emb_804,emb_805,emb_806,emb_807,emb_808,emb_809,emb_810,emb_811,emb_812,emb_813,emb_814,emb_815,emb_816,emb_817,emb_818,emb_819,emb_820,emb_821,emb_822,emb_823,emb_824,emb_825,emb_826,emb_827,emb_828,emb_829,emb_830,emb_831,emb_832,emb_833,emb_834,emb_835,emb_836,emb_837,emb_838,emb_839,emb_840,emb_841,emb_842,emb_843,emb_844,emb_845,emb_846,emb_847,emb_848,emb_849,emb_850,emb_851,emb_852,emb_853,emb_854,emb_855,emb_856,emb_857,emb_858,emb_859,emb_860,emb_861,emb_862,emb_863,emb_864,emb_865,emb_866,emb_867,emb_868,emb_869,emb_870,emb_871,emb_872,emb_873,emb_874,emb_875,emb_876,emb_877,emb_878,emb_879,emb_880,emb_881,emb_882,emb_883,emb_884,emb_885,emb_886,emb_887,emb_888,emb_889,emb_890,emb_891,emb_892,emb_893,emb_894,emb_895,emb_896,emb_897,emb_898,emb_899,emb_900,emb_901,emb_902,emb_903,emb_904,emb_905,emb_906,emb_907,emb_908,emb_909,emb_910,emb_911,emb_912,emb_913,emb_914,emb_915,emb_916,emb_917,emb_918,emb_919,emb_920,emb_921,emb_922,emb_923,emb_924,emb_925,emb_926,emb_927,emb_928,emb_929,emb_930,emb_931,emb_932,emb_933,emb_934,emb_935,emb_936,emb_937,emb_938,emb_939,emb_940,emb_941,emb_942,emb_943,emb_944,emb_945,emb_946,emb_947,emb_948,emb_949,emb_950,emb_951,emb_952,emb_953,emb_954,emb_955,emb_956,emb_957,emb_958,emb_959,emb_960,emb_961,emb_962,emb_963,emb_964,emb_965,emb_966,emb_967,emb_968,emb_969,emb_970,emb_971,emb_972,emb_973,emb_974,emb_975,emb_976,emb_977,emb_978,emb_979,emb_980,emb_981,emb_982,emb_983,emb_984,emb_985,emb_986,emb_987,emb_988,emb_989,emb_990,emb_991,emb_992,emb_993,emb_994,emb_995,emb_996,emb_997,emb_998,emb_999,emb_1000,emb_1001,emb_1002,emb_1003,emb_1004,emb_1005,emb_1006,emb_1007,emb_1008,emb_1009,emb_1010,emb_1011,emb_1012,emb_1013,emb_1014,emb_1015,emb_1016,emb_1017,emb_1018,emb_1019,emb_1020,emb_1021,emb_1022,emb_1023,Rg (nm)
MDVFMKGLSKAKEGVVAAAEKTKQGVAEAAGKTKEGVLYVGSKTKEGVVHGVATVAEKTKEQVTNVGGAVVTGVTAVAQKTVEGAGSIAAATGFVKKDQLGKNEEGAPQEGILEDMPVDPDNEAYEMPSEEGYQDYEPEA,0.14579102,0.039727636,-0.00336073,-0.12308388,0.03256449,0.005852112,0.011715859,0.00059265736,0.0053242743,-0.02953877,-0.052998662,-0.08031501,-0.039737396,-0.0034766241,-0.018077092,-0.08113631,-0.10610314,0.05137714,-0.025373342,-0.037386406,0.033377808,0.051022325,0.036113888,-0.002723745,-0.026565477,-0.05171745,-0.010943083,0.021625096,-0.037292186,0.07109648,-0.11763805,0.07336428,-0.045814272,-0.107363544,-0.02659484,0.002654691,0.055200785,-0.043981146,0.0323962,-0.08110444,0.010106615,-0.0012541728,-0.06259151,0.01766235,0.06253843,0.013165949,0.10687798,0.087976925,0.04461124,-0.056814577,-0.106240116,-0.0627765,-0.032517716,0.05115995,0.015253546,0.006977538,-0.09276414,0.036076043,0.042859703,0.037861843,-0.013320204,-0.051138856,-0.040625058,-0.034631588,-0.10859871,0.07339477,0.053406287,0.0812875,-0.051257726,-0.054228682,-0.05570236,0.035830352,-0.0024969247,-0.046088412,0.037459563,0.01739089,-0.112984076,0.020422952,-0.03492495,0.041171424,-0.08556521,0.03100762,0.066822134,-0.027554784,0.003038777,-0.03149605,-0.013085904,-0.34575492,0.119849406,0.05153662,-0.014405878,0.0047167656,-0.046250906,-0.044695586,0.012298317,0.12956701,-0.008934588,-0.053011417,0.07199524,0.033526573,0.08018446,-0.025000334,0.019675363,0.004108113,-0.016319586,-0.043316107,0.07594685,0.07372696,-0.04081894,-0.07382076,-0.08967285,0.0007440181,-0.07707041,-0.009700482,-0.03833229,-0.0127722155,0.02061602,0.012210866,0.06180543,-0.38857406,0.0579219,0.03889976,-0.0012857593,0.017990472,-0.049616326,-0.058110252,0.064117275,0.012815945,-0.041075498,-0.043542042,0.06869896,0.05409485,0.12672536,0.036228787,-0.022849321,0.01403319,0.01629253,-0.08366335,-0.08938704,-0.05442386,-0.018969936,0.022263113,-0.020804657,-0.19087915,-0.031663977,0.1599123,-0.116933525,0.12151566,0.06193063,-0.04741113,0.11259518,0.07841295,0.005984755,-0.011619113,0.1362707,1.9897667e-05,-0.04485895,-0.02324564,-0.035056405,0.034472022,-0.10676284,0.013836434,0.031478073,-0.018183738,0.010525039,0.03488367,-0.018017134,-0.043002434,0.031426605,0.019009259,0.008522274,0.080608666,0.026613895,0.048331082,0.080429435,-0.050579842,0.04164237,-0.07101753,0.024041831,0.08989866,-0.02157164,0.012445171,0.019286169,-0.09698953,0.010526006,-0.04804974,-0.012536542,0.029494504,-0.021963673,0.09879443,0.053819645,0.012449913,-0.00475564,0.019883519,0.02737621,0.012753624,0.07422244,-0.017270122,0.01066466,-0.03201873,-0.041722078,-0.03632522,0.014506508,0.043463938,0.053575017,0.010824219,0.05071237,0.024791962,-0.16420825,-0.009827218,-0.0015418757,-0.028046776,0.036759954,0.0013242605,-0.016524864,0.009249723,-0.012364585,0.07080294,0.08073441,0.059421457,0.12586573,-0.012020471,-0.0057543274,-0.07850536,-0.026968276,0.044000927,-0.050728127,-0.056391332,-0.013832755,0.021893993,-0.045124464,0.02785079,-0.023242705,-0.009518297,-0.022848124,-0.010117898,0.119894244,-0.013986655,-0.08921032,0.018306494,0.008339297,0.008014311,-0.028624455,0.040592805,0.020888565,-0.08810267,-0.06351195,0.048596237,0.034060948,-0.023929505,0.024466755,-0.067358784,0.019673461,0.0058047795,0.014319314,-0.009583567,-0.015916761,-0.036310993,0.04046108,-0.009243137,-0.031653225,-0.07536814,0.030369923,-0.047293898,-0.09426423,0.024984954,0.079764806,0.08772887,0.06726987,-0.015201639,-0.023349514,0.15323812,-0.016662145,-0.051017366,-0.015102711,-0.026909566,-0.060363434,-0.0877645,-0.0024292301,0.07029703,-0.027849382,0.009256867,-0.01457238,0.0702165,0.007888928,0.041503444,-0.046206243,0.035185605,0.06347367,-0.016669199,0.035806086,0.014996992,-0.028311655,-0.0561438,-0.030117555,-0.00096800714,-0.03158575,0.07091622,-0.05267429,0.007177185,0.05525987,-0.008311516,0.0317587,0.0150253065,0.026076613,0.051581886,-0.11316043,-0.012023138,0.024658665,0.024831885,0.03990425,-0.050086163,-0.039944842,-0.0014079368,0.010316813,0.04063393,0.003556369,0.04008754,-0.041109145,-0.03502048,0.013923533,-0.08113224,0.0025638887,0.04292388,0.09556501,0.0046160044,0.017085405,-0.042159166,-0.43476197,-0.019617409,-0.084493384,0.05580316,0.14932993,-0.04409741,0.08001953,-0.027320044,0.0006546105,-0.011798127,-0.017226748,-0.060201436,0.034640796,-0.08346125,0.0113822045,0.017752884,0.11322564,-0.013499729,-0.05158009,-0.05491824,-0.09274223,-0.03245991,0.047375627,0.00012640299,0.013035585,-0.09979193,-0.06642859,0.0228652,-0.031748116,-0.029776966,-0.049847987,0.033778988,0.03110382,-0.0133382585,0.017310834,0.009691522,-0.028293664,0.003940239,-0.00035958653,0.011028644,0.045449022,-0.033197388,-0.0599973,0.022432169,0.058952928,0.004065551,-0.07796405,0.034362424,0.02191943,0.045617733,-0.004182392,-0.015217145,0.17180023,-0.034527343,-0.064184844,-0.013762539,0.021069454,0.068090625,-0.01630819,0.032952424,0.01266308,0.028234541,0.098994896,-0.03644353,-0.021839729,0.09466148,-0.09367723,0.07553079,-0.039460424,0.20756999,-0.07637101,-0.024008214,0.036474917,0.005345511,-0.039697416,0.03700421,0.015430843,0.00850505,0.008913266,0.032358184,0.033237547,-0.0028627561,-0.11668726,0.019746348,0.006045931,-0.04217221,-0.007666692,0.058054104,0.003586938,0.021999141,-0.025780056,-0.04274958,0.001178804,-0.09870628,-0.098034106,0.035430934,-0.015041375,-0.045240566,-0.11401156,0.021684723,-0.06614525,0.040993355,-0.1608247,0.04064617,-0.05078784,0.0076692514,0.01663669,0.05976165,0.018850163,0.029037727,-0.062468544,-0.0056767706,0.0022836355,0.033963084,-0.0051143193,0.031876642,-0.07793408,-0.0063582812,0.041520838,-0.020584771,-0.107946634,-0.040686157,0.010601276,0.01264666,-0.0019566326,0.019684963,-0.015570517,0.009128225,-0.022545442,0.025870658,-0.054687962,0.009172271,-0.003004357,0.029184878,0.011635554,-0.013007492,0.051728714,0.049647857,0.043884452,-0.036256846,0.03153385,-0.026800156,0.009194093,0.036090087,-0.027107704,-0.014910392,0.03173457,0.05271944,0.090891086,0.03616245,-0.002417209,-0.05701697,0.03292545,-0.056378726,0.007194315,-0.029938594,-0.050420184,0.0024020972,-0.07134348,0.020898623,0.007688128,0.02534574,0.026202703,-0.029099025,-0.05399562,0.0124619305,-0.03041587,-0.018563652,0.07404095,-0.011375318,-0.0060487245,0.43144515,0.016795788,-0.018677577,-0.051900595,0.0119324215,0.05218484,-0.036105596,0.0048146145,0.03124862,-0.04571575,-0.015531921,-0.0037813925,-0.019867986,-0.027221352,-0.028404927,0.015550057,0.010603237,-0.07509579,0.054963537,-0.0034307444,0.04699048,-0.019877374,-0.055346373,-0.018236492,-0.030309143,0.045093637,0.07635892,0.006913374,-0.009425496,0.10875214,-0.0041869776,0.008998007,-0.035858437,0.015881388,0.40742892,0.03925283,0.028943827,0.017505735,0.10983441,0.020627825,0.0082311835,0.10313715,0.017809555,-0.05199227,0.05140589,-0.051676232,0.03238843,-0.11712703,0.104653984,-0.041018605,-0.018066032,-0.040068734,0.013081291,-0.045092214,0.0056325356,0.006504539,-0.045503788,-0.068804346,-0.019206993,0.07878424,-0.079880126,-0.0022773743,0.0020326811,-0.028857412,0.06485921,-0.055552494,-0.08370259,0.018448072,0.043995008,0.032567285,-0.009343833,0.0036514662,-0.056057803,-0.084912196,0.035291158,-0.033957046,-0.06550581,0.03207658,-0.008969804,-0.14505862,0.05126512,-0.065239735,0.05368711,-0.018042924,0.01735448,0.071994424,-0.034208544,-0.033718057,0.04853747,0.013534682,-0.033606194,-0.027192825,-0.058755923,-0.021689013,0.022044225,0.046124652,-0.047429264,0.035885267,-0.076850526,-0.09073087,-0.067975484,0.07546017,-0.05556231,-0.025384707,-0.098363824,-0.13286717,-0.039158653,-0.013439661,0.03987423,-0.04546426,-0.024768759,0.0193524,0.07893513,-0.05317945,0.058365293,0.055856913,-0.019666616,-0.055439334,0.002780722,-0.026146604,-0.0084070815,0.06365652,0.054316502,-0.038968816,-0.081976846,0.040128823,-0.023615453,-0.006784257,-0.011181147,0.034101013,-0.024524242,0.011839112,0.015552661,0.06581028,0.0054493877,-0.0032186774,0.1172363,-0.021776266,-0.078778036,0.049683917,0.02523053,-0.050439954,0.01663833,-0.09839349,-0.0004546252,0.039028388,0.0073465644,0.04967323,-0.4181128,-0.0035871188,-0.06791739,0.08967285,-0.03100238,0.033411022,0.016689053,-0.066115536,-0.024497975,0.013266001,-0.06354191,0.02667316,-0.056717906,-0.014890555,-0.010027632,0.043231007,0.03258854,-0.013923957,0.055696387,0.04524686,0.16027962,-0.034243386,0.08516501,0.018806774,0.01365394,0.062941514,-0.034291252,-0.018955827,-0.003611149,-0.03634223,0.043724786,-0.048138354,0.051118582,0.008987946,-0.024171738,-0.03970118,0.0430622,-0.1003538,0.02303029,0.041415136,0.005245766,0.012104439,-0.0012203753,-0.05939271,0.02611374,0.022610264,0.017567312,-0.038185418,-0.017145148,0.12846178,-0.11650965,0.049972724,0.011991977,0.029609943,0.05832026,-0.060667515,0.047979105,0.06393528,-0.10064459,0.0023477855,-0.009547385,0.018445086,0.035401467,-0.107444964,-0.010139373,-0.0073825484,0.046167586,-0.011614385,-0.020229248,-0.17805788,-0.042843778,-0.03365691,0.16675933,0.017049683,0.003463065,-0.026339633,0.038994532,0.07644458,-0.034282107,-0.072376125,0.075261176,0.019432206,0.033002827,-0.0031607538,0.050145935,0.013537746,-0.04416917,-0.06074938,-0.051672522,0.026248565,-0.007395264,0.14208156,-0.065008566,0.011173926,0.08208779,-0.040718157,0.0015059437,-0.104973786,0.04233874,-0.043198377,-0.021216769,0.048978053,0.09135515,-0.024048911,0.01376491,-0.015961533,-0.109102964,-0.059624076,0.009553095,0.011350603,-0.05804176,-0.03013352,0.028450878,-0.009469009,0.037590664,0.037144847,0.033079643,0.0072502587,0.0047937506,0.04469585,0.1032236,-0.04623507,2.839658,0.026076868,-0.03423862,-0.033043176,-0.027870497,-0.05998337,0.030588275,0.059392847,-0.0014338073,-0.10156133,0.11753646,-0.03985862,0.106714495,-0.028287942,0.017781189,0.24372284,-0.017255813,0.037277307,-0.012910067,-0.047761083,0.05438485,0.04205148,0.06467448,0.08221144,-0.064523034,-0.013662434,-0.09925549,-0.047942705,0.05921501,0.1012725,-0.083689034,0.027282849,-0.05052267,0.0647463,0.0015918021,-0.015641518,-0.07294211,-0.034776162,0.11265595,-0.022201015,0.00023096464,0.009610113,0.08893388,0.01565772,-0.035338797,0.054368142,-0.098835774,0.10504352,0.0015372735,-0.0007650489,-0.087002255,-0.1124462,-0.046130773,-0.023909612,-0.13915764,0.8761216,-0.12328267,-0.05186031,-0.0026212775,0.03461737,0.058654778,0.064632565,0.015722267,0.059863526,0.12802921,0.015381662,0.005794196,-0.086885236,0.08035978,-0.017870478,0.03422216,-0.032258343,-0.00043709512,0.05457223,0.010099126,-0.008687363,-0.06722642,0.012025173,0.037910443,0.007170893,-0.049164724,0.011440712,-0.011998407,0.027704813,0.01267063,0.1207771,0.005534587,-0.07225301,-0.02150032,0.026987396,0.06422032,-0.019030554,-0.044992674,-0.012719079,-0.0298877,-0.025782032,0.040053017,-0.028876644,-4.942988e-06,0.057549316,-0.00773511,-0.11027456,-0.055735923,-0.04086656,0.06904823,0.06353476,-0.017972397,0.05053901,0.071932964,0.02143656,0.010743522,-0.09418359,-0.10964649,-0.0333788,0.11336775,0.10382158,0.000504581,0.07794563,0.023500238,-0.060603242,-0.05839184,0.030747874,-0.012754209,0.055841465,-0.068162546,0.021762526,0.08744945,0.018144358,0.01819894,0.0928747,0.039753806,0.0004894544,0.0052495543,0.0028512063,-0.017341848,-0.028127195,-0.022886539,0.060297403,0.07190817,0.02154882,0.070269726,-0.026386645,0.020128973,-0.049931273,0.002195934,-0.045036383,-0.034255076,0.0044680457,-0.10686305,0.03088826,0.009845388,-0.06967238,0.056595575,0.078706644,0.053307813,0.0148918815,0.06866585,0.04820035,0.016032817,-0.023400055,0.0031648823,-0.013172368,-0.0128751695,0.1296573,-0.013295155,0.0451724,0.13605969,-0.056489393,-0.09706865,0.11699733,-0.026528656,-0.14565057,-0.052508365,0.055490125,-0.012161829,-0.026465248,-0.03991456,-0.08358902,-0.08162562,0.03279234,0.010025568,0.014196373,0.022738947,0.010104031,0.06269681,-0.017649805,-0.027949559,0.010303538,0.029090295,-0.021355301,0.004511509,0.0017196324,0.057524707,-0.0563366,-0.058570433,-0.016967127,0.062261257,-0.07862763,-0.024229642,-0.054131452,0.015062426,0.000736758,0.04018482,-0.2781907,-0.07176869,-0.09139502,0.005083341,-0.09160202,0.013950712,-0.060604848,-0.045216534,0.006094416,0.050135452,-0.0014915845,0.006580063,0.0019757971,-0.02110488,-0.050117787,-0.03434852,0.010645342,0.0009211944,-0.013167213,-0.0059455596,0.025591008,-0.044214677,-0.003395864,-0.03818541,-0.0035644905,0.031412985,-0.027519407,-0.08806983,0.051765833,0.005390189,0.043311555,0.21818222,0.084065534,0.027979568,-0.054365054,-0.05483161,0.043656405,0.003331747,-0.12896177,-0.04792018,-0.013223712,-0.047451697,-0.024808444,-0.073466435,0.10583089,-0.04250762,-0.039276436,-0.08167907,-0.06286633,-0.12868413,-0.05938853,0.024087604,3.55
MQTAPVPMPDLKNVKSKIGSTENLKHQPGGGKVQIINKKLDLSNVQSKAGSKDNIKHVPGGGSVQIVYCPVDLSCVTSKAGSLGNIHHKPGGGQVEVKSEKLDFKDRVQSKIGSLDNITHVPGGGNKKIE,0.04889267,0.036755845,-0.031740826,-0.04980855,0.073502466,0.05086555,0.0073514995,-0.00436703,0.00016423687,-0.0055043995,-0.12442701,-0.040741656,-0.05251033,-0.011947867,0.0269764,0.050818983,0.01506866,-0.0092068305,-0.06708307,0.009466539,0.009672651,0.02641382,-0.0022765186,0.0077110655,0.034475677,-0.023130124,0.037657324,0.046440803,-0.045836866,0.06598317,-0.100803204,0.00020350555,-0.02834993,-0.034862824,-0.02661404,-0.001870393,0.046859473,-0.031077066,0.01060513,-0.012956949,-0.0040906426,0.008958302,0.03352445,-0.040766813,0.00073054864,-0.053519774,0.0850565,0.004112579,0.088228874,-0.046090953,-0.019489735,-0.06725408,-0.031428546,0.012799263,0.0127166435,-0.024315858,-0.010321018,-0.094074905,-0.06398819,0.008314471,-0.046248883,-0.023936443,-0.00096041575,-0.037634317,-0.10202426,0.058217578,0.00860108,0.013873862,-0.01922649,-0.09038482,-0.05207163,-0.019187694,0.025602346,-0.023070596,0.015720567,-0.02377354,-0.04643735,-0.009484942,-0.07351924,-0.024158439,-0.06641605,0.071868844,0.014558062,0.0075568436,-0.005414435,0.015151575,-0.0034408083,-0.24018899,0.10618674,0.066857055,0.025062837,0.026299456,-0.042673256,-0.044052377,0.008103296,0.043964267,0.08969117,-0.049188472,0.039547898,0.026809255,0.06545583,-0.00097141846,0.084794074,-0.04202528,0.044938788,-0.069079995,0.019933255,0.1018601,-0.007002345,-0.08028783,-0.041979287,0.05382003,-0.045244467,0.022857914,-0.04390517,-0.04361386,0.042452186,-0.0033453612,0.027806759,-0.28523564,0.022074977,-0.06594131,-0.011561085,0.022408802,-0.008329712,-0.018242769,-0.006001908,-0.0012353414,-0.004001256,0.02833602,-0.00067578565,0.032716505,0.07713137,0.00784493,-0.030677062,0.031371273,-0.0062391507,-0.02013655,-0.07649345,-0.059568536,-0.017675653,0.04716788,-0.008799179,-0.19204536,-0.03302491,0.12830782,-0.10479494,0.06817818,0.009482179,-0.024911566,0.044876963,0.047728505,-0.071296655,0.044601515,0.05018787,-0.035469905,-0.08594297,-0.018006701,-0.0143406885,0.038329974,-0.062055428,-0.062253375,-0.018374812,0.013635225,0.04856792,-0.0070694527,-0.041883063,-0.03733568,0.06712387,0.02535456,-0.0058803097,0.05294896,0.038437642,0.112148345,0.012405066,-0.0025515056,-0.010873903,-0.026037542,-0.027850615,0.041215938,0.014570067,0.025277495,0.0038829632,-0.12784696,0.042658083,-0.007011554,0.03127303,0.034981504,-0.059502374,0.12729746,0.007703136,-0.018815385,0.027371533,0.06398741,0.010164023,-0.0787385,0.019667538,-0.013317401,0.009686456,0.0091219125,0.008021958,-0.015465465,-0.0056573786,0.049732696,0.034529455,-0.022737145,0.0341081,0.0076118726,-0.057640016,0.008628749,-0.070680216,-0.037210308,0.02228428,0.012034554,-0.02690226,-0.015990537,-0.103395745,0.05210883,0.09285541,-0.015835725,0.119913794,0.016169295,0.008355284,-0.06785269,0.0023269714,0.046619356,-0.04531105,-0.053579327,-0.058358487,0.015224449,-0.011871736,0.027107442,-0.0052113617,0.00493511,0.0487795,0.03129081,-0.024224827,0.04505098,-0.08678873,-0.016256185,0.035650976,0.0022851012,0.02113199,0.051734902,0.014714598,-0.01771755,-0.040106595,-0.016593201,0.0459525,-0.015621823,0.007950711,-0.040452816,0.005201786,0.05723029,0.005745244,0.01889868,-0.054861683,0.009816053,-0.0010136534,0.04375736,-0.053561788,-0.060364027,-0.07476148,-0.042095535,-0.08927921,0.022337843,0.06317167,0.042185526,0.033521984,-0.08665171,-0.026260665,0.058505647,0.005501811,-0.025890157,0.020913078,0.060829833,-0.028678423,-0.03668658,-0.008648602,0.10430836,-0.042493846,-0.013674482,-0.029387673,0.07173523,0.023206191,0.036972214,0.001986939,0.03941181,0.02051792,0.009809739,-0.056377564,0.31301525,-0.04669827,-0.09028514,-0.10002027,0.027988177,0.006198419,0.081719644,-0.033779673,0.032104265,-0.022651834,0.009534545,0.01941497,0.05721995,0.039848328,0.043999873,-0.0041565318,0.022677666,0.006915794,0.0065123728,0.022830714,-0.024054678,-0.050045934,-0.05381386,0.05641587,0.022781696,-0.04582814,0.036464583,-0.07380094,-0.020661775,0.053431842,0.01132936,0.058214817,-0.012855916,0.011872068,0.039287005,0.041590817,0.005862695,-0.26201946,0.023477959,-0.091170385,0.036918156,0.046948403,-0.0431334,0.045830123,0.035041265,-0.008812299,0.0119065065,0.030768383,0.049925372,-0.029351324,-0.010005813,-0.034273725,0.04177289,0.01118805,-0.059677955,-0.018546002,0.028923823,-0.021557208,-0.057272047,0.0041483217,-0.016655795,-0.03748924,-0.06240607,-0.031913545,0.010059516,-0.04888469,-0.0431727,0.027518826,0.040286157,-0.005754609,0.025853006,-0.02238648,0.021848394,-0.025923504,0.053863414,0.0007285941,0.03689246,0.008863309,-0.0045363433,-0.047342855,0.006245466,0.016298668,0.025791436,-0.0748468,0.04679677,-0.017810903,0.058212932,-0.002242349,0.015837051,0.065177314,-0.038525835,-0.074098326,-0.016311051,0.021540212,-0.010610024,-0.04901145,-0.0040690643,-0.025776945,0.015474812,0.04101306,-0.021360466,-0.03454137,0.08813137,-0.069598936,-0.07106721,-0.004527503,0.074467175,-0.03441847,-0.041577004,0.033740234,0.036791734,0.03006975,0.07749985,0.03337569,0.04065819,0.0006593302,1.631948e-05,0.017568605,0.002606913,-0.0061722696,-0.05469777,-0.0019301669,0.001837454,-0.046302248,0.045057897,-0.036387015,0.05017078,0.017928844,-0.038372934,-0.058972478,-0.0873936,-0.09577843,-0.020046571,-0.047557827,-0.00808592,-0.0035337892,-0.065662764,-0.07975471,0.038752668,-0.0920576,0.022095948,-0.06383044,0.014739113,0.014237284,0.0058972905,0.017852131,-0.02974086,-0.0010808961,0.04273013,0.00403127,0.024905302,0.015343153,-0.013430862,-0.025435662,-0.030704945,0.025460424,0.018501412,-0.047929578,-0.017930722,0.020556033,-0.015396579,0.040821675,0.010827977,0.017504951,0.05422439,-0.05085424,-0.031132944,-0.090765044,-0.007968432,0.02963639,0.033693593,0.0112143615,0.085996404,0.040449873,0.040805694,-0.010362337,-0.05571464,-0.009043457,-0.0061617577,0.021990735,0.0328575,-0.02544066,-0.0088666435,0.011958595,0.04709729,0.041488294,0.041209914,0.018647537,-0.0010286018,0.020387905,-0.009055377,-0.006952256,-0.04377842,-0.052246872,-0.0059236996,-0.050740235,0.0061969515,0.013475485,0.025115287,-0.029045716,0.008317247,-0.013659906,-0.043573692,-0.04768592,0.008457834,0.043524012,-0.04528582,0.033327073,0.3679852,0.019497845,-0.0042277602,0.0030041817,-0.050278127,0.017645625,-0.037165657,-0.03399057,0.027297396,-0.016639123,0.0054279845,-0.006902368,-0.05475224,-0.059914194,0.0093429405,0.067513295,-0.0074017216,-0.041765913,0.06232653,-0.0078091794,0.01800997,0.0030501327,-0.04821838,0.026377117,0.008547541,-0.02205685,0.054794222,0.008836962,-0.024580698,0.02251681,0.03594512,-0.0048744488,-0.036039084,-0.04498787,0.03335668,0.0017513734,0.012687847,0.038910426,0.027226496,0.035771824,-0.019518618,0.06970905,0.016244616,-0.04644397,-0.030449983,-0.0072099115,0.06589711,-0.10232989,-0.0062542916,-0.05450886,0.01807782,-0.035230543,-0.00072688743,-0.05263301,-0.006023063,-0.0006719591,-0.018295523,-0.09039438,-0.03672056,0.038100373,-0.06648739,-0.06399038,-0.019068334,-0.048045684,0.031059222,0.01447729,-0.09341667,0.04795338,0.1007483,-0.029672764,-0.0572971,-0.0293857,-0.010989156,-0.06225586,0.008669667,-0.027510103,0.02790349,-0.019592958,-0.027593074,-0.28291166,0.036949463,-0.0031868408,0.079185136,0.04795112,-0.023405883,0.04851209,-0.081972316,-0.035709865,0.051976018,0.0083709555,-0.037083764,-0.00022157242,-0.06307621,0.016116675,0.023257747,0.07646454,-0.08337628,0.060267337,-0.024018649,-0.061738536,-0.0015681809,0.06990785,-0.07883629,-0.013469777,0.019525316,-0.057065394,0.035566516,0.017049206,-0.030419393,-0.017386073,-0.015077527,-0.05883725,0.04595888,-0.030285887,0.020541593,0.018925559,-0.005961331,-0.07733865,0.018032845,-0.020254238,0.0031387906,0.02562874,0.074919984,-0.046840847,-0.048318334,0.0074570864,-0.0037983854,0.022728324,-0.03775945,0.08376661,-0.038809944,0.017725533,0.03967126,0.024252623,-0.0014490173,-0.047015,0.06674528,0.0010419919,-0.05558283,0.0012624571,0.030219918,-0.008376735,-0.032748513,-0.014204929,-0.012582583,-0.014416444,-0.026895856,0.046179336,0.17930262,0.026023217,-0.10033445,0.025064949,0.0298967,0.063506305,0.027409738,-0.09261591,-0.04346186,-0.015376495,-0.06507405,0.09555808,-0.028462624,0.08436392,0.040790316,-0.011092004,0.04101126,0.043208476,0.026859079,0.031961698,0.039233398,0.026751636,0.05324638,0.0049873544,0.027434759,0.051589314,0.036225326,-0.029233698,-0.021468801,-0.010280062,0.01834264,-0.014785191,0.02946359,0.040149815,0.03547306,-0.035348944,0.0140877105,-0.053839855,0.112298,-0.07169508,0.008866028,0.010875014,-0.010036304,-0.020943804,-0.019519601,0.024363345,0.020433627,-0.061685815,-0.012126081,0.11250627,-0.054019045,-0.03453867,0.030171067,0.034253854,0.02769456,-0.057484876,0.011605576,-0.006212054,-0.059083432,-0.022345189,-0.03117458,0.097224265,0.013203854,-0.030636095,-0.054348003,-0.0018650397,0.050724383,-0.010218635,-0.012672241,-0.21042715,0.004887644,-0.011146978,-0.126274,-0.002660686,-0.06074578,-0.027659029,0.0495446,0.018520705,-0.14811996,-0.072817154,0.00070012215,0.026563674,0.026995718,0.0022476218,-0.0025632256,0.044915445,-0.040956512,-0.1083853,-0.060216457,-0.01637039,-0.018525392,0.008356956,-0.038537543,-0.034797482,0.08081783,-0.011653916,0.018166145,-0.064518794,-0.0030377824,-0.023419324,0.024317238,0.05867434,0.03539256,-0.047466446,0.004935242,-0.005566181,-0.055826403,-0.022439906,0.04151197,0.0372456,-0.015206644,0.012452191,0.01563164,-0.025492221,0.024427304,0.019362377,0.043630075,0.016870162,-0.023196423,0.006076287,0.026402377,-0.00093199435,3.351368,0.027723389,0.00011192917,-0.048469234,-0.07949044,-0.016616184,0.011499081,-0.01375964,0.045640834,-0.00635517,0.023454685,0.0018048398,0.050075203,-0.017573658,-0.004473728,0.17945708,-0.0655314,-0.031521052,0.035494186,0.018623414,0.13982019,0.08102863,0.081811406,0.053075705,-0.023319613,0.029086294,-0.06417913,-0.01692799,0.049531557,0.11119902,-0.059401263,0.03820815,-0.027576413,-0.09993038,0.06095137,0.012542744,-0.045818333,-0.060565226,0.12353131,0.02703094,-0.022776045,0.08375428,0.02830996,-0.01417278,-0.0048449924,0.09679942,-0.2298634,0.02364282,0.038607918,0.030183911,-0.040168125,-0.032322973,-0.026145171,0.027811848,0.18355925,0.780759,-0.06919806,0.007859573,-0.019159602,-0.034337454,0.019905256,0.060484454,0.009738453,0.06329854,0.03187338,-0.020606587,-0.0004189817,-0.039828468,0.064713225,-0.0020062032,0.022092685,-0.009361597,-0.0047817905,0.019567132,-0.0036860593,-0.017962916,-0.1219717,-0.012025856,0.0031153501,-0.002961342,0.02236839,0.027723404,0.05501904,-0.0053109336,-0.021706924,0.045811415,-0.023679767,0.001317271,-0.037647106,0.030626578,-0.0028958258,0.031626455,-0.00886293,0.044775933,-0.04597106,-0.03019004,0.027648835,-0.031677883,-0.027573897,-9.5177966e-05,0.0027507928,-0.10223064,-0.067354135,-0.022869896,0.032671526,0.01878587,-0.0118367495,0.056398,0.056305032,0.006524252,-0.030827433,-0.06400522,-0.04998722,-0.04177865,0.08217703,0.014255662,-0.14632647,0.00071958307,0.0049674963,-0.04897362,-0.011485267,0.029766547,-0.013310459,-0.009580208,-0.04875,0.042829715,0.04806816,-0.0113084745,0.012897863,0.05737148,-0.016279144,0.060970146,-0.050548814,-0.010247843,0.009981951,-0.072477706,-0.03830934,0.018945353,0.019530665,-0.02599168,0.05479304,-0.051245943,0.016269716,0.021320706,-0.04355231,-0.0140396925,-0.028294617,-0.032845963,-0.014731614,0.011730092,0.0043435604,-0.04184826,-0.051903404,0.11356822,0.030380683,-0.011709772,-0.009056099,0.09350775,0.044666264,-0.032803867,0.04171881,-0.007606631,0.05490999,0.07992898,0.053972054,0.07902671,0.06718277,0.02080025,0.017115336,0.03701937,0.020400196,-0.115629844,-0.00577868,0.08862347,-0.0008501898,-0.0060331435,-0.026291063,-0.108509175,-0.043063194,0.0009830655,0.0024583396,0.0169322,0.0026674431,0.03323677,0.005569169,0.026296351,0.03751256,0.06946355,-0.0027396097,0.05208235,-0.04108198,0.0070217047,0.048706073,0.021413071,-0.022322178,0.018727235,0.024396287,-0.1451952,-0.03869738,-0.031750903,0.021623533,-0.023071326,0.037385423,-0.13694534,-0.053600967,-0.06177014,9.635971e-05,-0.062153585,-0.0092957765,-0.024452036,-0.016597182,0.0070724543,-0.03176271,-0.010469233,-0.032850828,-0.052061055,-0.013517844,-0.036672015,-0.018637875,0.03477808,0.0034588135,-0.047626987,-0.0077429335,-0.0324514,-0.025904266,-0.04429064,-0.038212698,0.035174917,0.019380964,0.008631613,-0.096698165,0.04591281,0.011162025,-0.041845717,0.1951178,0.02733404,0.049438212,-0.005039533,-0.046032485,0.007253538,0.00018267526,-0.08285752,-0.076796785,-0.09358161,0.021352695,-0.05948519,-0.048538167,0.082399644,-0.051757302,0.055485036,0.00367744,-0.09992381,-0.12581119,-0.009840966,-0.049913727,3.5
MGHHHHHHMSSILPFTPPVVKRLLGWKKSAGGSGGAGGGEQNGQEEKWCEKAVKSLVKKLKKTGRLDELEKAITTQNCNTKCVTIPSTCSEIWGLSTPNTIDQWDTTGLYSFSEQTRSLDGRLQVSHRKGLPHVIYCRLWRWPDLHSHHELKAIENCEYAFNLKKDEVCVNPYHYQRVETPVLPPVLVPRHTEILTELPPLDDYTHSIPENTNFPAGIEPQSNYIPETPPPGYISEDGETSDQQLNQSMDTGSPAELSPTTLSPVNHSLDLQPVTYSEPAFWCSIAYYELNQRVGETFHASQPSLTVDGFTDPSNSERFCLGLLSNVNRNATVEMTRRHIGRGVRLYYIGGEVFAECLSDSAIFVQSPNCNQRYGWHPATVCKIPPGCNLKIFNNQEFAALLAQSVNQGFEAVYQLTRMCTIRMSFVKGWGAEYRRQTVTSTPCWIELHLNGPLQWLDKVLTQMGSPSVRCEEME,0.15726344,0.07210174,-0.040763877,-0.12039926,0.14232272,0.0017903995,-0.024741227,0.058598477,-0.0033554411,-0.0025307992,-0.061937425,-0.047804836,-0.011960011,0.0015575951,-0.012354825,0.0076775965,-0.048480626,0.032690886,-0.028699663,0.004236551,0.0035294008,-0.018002773,0.019670954,-0.020259062,-0.05705271,-0.08267164,0.05555225,-0.05306694,-0.026199909,0.060228657,-0.13789192,0.036584053,-0.043383244,-0.0068302276,-0.03461637,0.020612134,0.015675647,-0.034787152,0.038973793,-0.058980264,0.02728024,0.049875394,-0.03904024,0.0117778815,0.07519538,-0.0029231883,0.06914093,0.08575416,0.09501352,-0.046125896,-0.059724405,-0.0017886005,0.012712479,0.020492878,0.030337984,0.033673305,-0.059458423,-0.023120547,-0.053632267,-0.0048302636,-0.003385005,-0.05229071,-0.034666464,-0.05910383,-0.012302524,0.019749364,0.0072483555,0.06417333,-0.017917246,-0.096954115,-0.061263118,-0.01542852,0.010757636,-0.019936988,0.034733314,0.015543645,-0.062329743,-0.023269797,-0.0076444084,-0.0028719606,-0.06556673,0.032651477,0.0069030495,0.02110387,-0.0035006597,-0.058329,-0.008501312,-0.28903428,0.13776584,0.067713246,0.032239147,0.008654147,-0.018706229,-0.05322002,-0.04628442,0.070273004,0.108104266,-0.0045756563,0.05469708,0.008291228,0.05763665,-0.020855494,0.019919934,0.01060035,0.05278924,-0.022005212,0.0731474,0.09972727,-0.035374336,-0.058705144,-0.029617496,0.022195913,-0.115353115,-0.052118786,-0.096140414,-0.112337835,-0.03469775,0.07571335,0.06585579,-0.53143454,0.08414012,-0.005419745,0.04889923,0.06399432,-0.018020853,-0.049419116,0.047998365,-0.022145152,-0.0897893,-0.0011298042,0.0035965878,-0.03155069,0.027488712,-0.085086286,-0.08578547,0.034871724,0.023724422,0.0013470686,-0.07518788,-0.0548682,-0.020596864,0.024235168,0.02365303,-0.45542765,-0.065286584,-0.27669373,-0.14586897,0.11999983,0.004935303,0.0055143507,0.018243194,0.06440914,-0.053228375,0.030327477,0.00059370324,-0.06298918,-0.023213848,-0.06281223,-0.04880938,0.019956645,-0.0542646,-0.08235097,0.027349599,0.017052252,0.009623809,0.071724445,-0.027085861,0.012793301,0.050695907,-0.030767145,-0.011009472,0.09619995,-0.0058330335,0.094390206,0.024642443,-0.007197213,-0.03921722,-0.02615904,0.046300873,0.07521405,-0.07460132,-0.037894953,-0.042783197,-0.1256401,-0.00032196654,0.01918035,0.061230227,0.034835257,-0.013796131,0.1523291,0.111604676,-0.04459047,-0.019123193,0.0930837,0.0073070857,0.04239235,0.05621224,-0.06639929,0.015975967,-0.09186264,-0.009731195,-0.056246,-0.021690717,0.08128539,0.014828089,-0.037754014,0.042092763,-0.026461365,-0.1521012,-0.0067757363,-0.015989661,-0.04969627,0.09086432,-0.004873322,0.009662108,0.0058609475,0.014220519,0.046511028,0.055455055,0.04563747,0.15787876,-0.039611977,-0.02063654,-0.03901096,-0.012471698,0.021398753,-0.040344328,-0.0554009,-0.03609669,0.0025559845,0.021069642,0.05998557,-0.044380438,-0.020229729,0.07869834,0.049085654,0.29218537,-0.055161092,-0.057865385,0.032787114,0.007414288,0.012515392,0.0045910464,0.06754359,-0.0156109845,-0.027456209,-0.051915288,-0.023773633,0.07786045,-0.015330824,0.056022227,0.031961545,-0.03323538,0.03653223,0.022325976,0.015157245,-0.010121689,-0.089905955,-0.024184532,0.06552761,-0.011695563,0.014247205,-0.06040984,-0.044656567,-0.14448076,0.071393676,0.065367535,0.09356454,-0.08301354,-0.07475495,-0.0035381108,0.050790872,-0.021919776,-0.002393058,0.029401222,0.07024559,-0.09524719,-0.035644427,-0.049288955,0.1438017,-0.004681163,-0.0020388407,-0.1107725,0.05248821,-0.024011096,0.060189202,-0.0362017,0.14410967,0.03470384,-0.020675479,-0.06618128,0.17094676,-0.092068374,-0.107149586,-0.101081826,0.014147663,-0.020666502,0.15562366,-0.05819426,0.0757465,0.028340338,-0.041845303,0.03494006,0.06679147,0.06299097,0.017177172,-0.04380341,-0.020243146,0.015331545,0.033605877,-0.021710016,-0.015846513,-0.0044477284,-0.061053447,-0.067858174,0.035946533,-0.016434073,0.03878515,-0.05553937,-0.027958674,0.0103586735,-0.007887297,-0.03574693,-0.026860852,0.053169403,0.022908602,-0.0048175384,-0.018572098,-0.108233444,-0.034252994,-0.09117742,0.15352482,0.0131364595,0.04517001,-0.0051943273,-0.027155252,-0.014311381,0.00050699385,0.014785868,0.010226462,0.006734224,-0.051006533,-0.006069086,0.050481677,0.08292876,-0.021258045,-0.040089175,-0.00929982,-0.030228918,0.030508393,0.036286637,0.0076250425,0.03138368,-0.07575251,-0.05314658,-0.03336741,-0.007774826,-0.0677442,-0.08901759,-0.026061438,-0.012422712,0.10606627,0.019470548,-0.002198559,-0.013924182,0.053557422,-0.01150307,-0.008523017,-0.0125783235,0.056982227,0.06561293,0.008994876,0.048141874,0.05062717,-0.08197633,0.013881353,0.029112974,0.07402373,0.017585821,-0.00011063622,0.13251042,0.020431155,-0.057538584,-0.09770355,-0.021519158,0.06054996,-0.03460699,0.09801556,-0.077739306,0.022816088,0.04827514,-0.018084798,-0.07541122,0.08732928,-0.09564102,-0.0950008,-0.045262817,0.15499699,-0.009651415,-0.006208338,0.0060271877,0.010403505,0.025319088,0.05034124,-0.026521485,0.11124384,-0.045433722,-0.013629284,0.028342921,0.07249,-0.020905113,0.023237573,-0.01320313,0.033444848,0.10244733,0.029797973,0.048877873,-0.038672656,0.042791314,-0.0779942,-0.07866486,-0.14405514,-0.088881835,0.029754994,-0.071413934,-0.0773965,-0.09875699,-0.044778433,-0.03798728,0.029236197,-0.07458357,0.062180188,-0.058991767,-0.07271017,0.041918185,0.044534687,0.056254514,-0.014636315,-0.012098765,0.023677437,-0.0018857355,-0.009685715,-0.09860778,0.041557033,-0.03865467,0.011671103,-0.0006211666,-0.027965235,-0.1249045,0.03931134,0.018300653,-0.014501464,0.019344952,0.0067928527,0.013591993,0.028535144,-0.08678668,-0.011359061,-0.09448674,-0.058830764,-0.014802799,-0.05557683,0.030976374,0.057625018,0.09602179,0.03904269,0.06608636,-0.06173277,0.060940918,-0.0826317,-0.026562717,0.02520551,0.052060604,0.04375833,-0.011057291,0.020052763,-0.018639764,0.11546772,0.030344928,-0.04810253,0.010518116,0.0012890192,-0.00083286245,-0.028561173,-0.07969261,-0.024431413,-0.07573615,0.010119638,0.00893259,0.05632123,-0.045388717,-0.030185819,0.012690567,-0.11989369,0.010588566,-0.0035651315,0.08022382,-0.10577757,-0.014027839,0.5342718,-0.01843017,0.06444352,-0.03314143,0.026293661,0.036067158,-0.04884469,-0.06604438,-0.036133364,-0.005263971,0.009244955,0.004480323,0.0089232335,-0.047521915,-0.0140526965,0.07726459,-0.039849848,-0.056203794,0.066017665,0.015409639,0.028177207,-0.04281139,-0.03916529,0.02620547,-0.018356524,0.005767172,0.03775031,0.03277887,0.039361153,0.07806019,0.01823508,-0.0019038896,0.023008749,0.01794614,0.09871556,0.08302473,0.050908767,-0.00043916702,0.1048089,0.03824434,-0.07554452,0.016249996,0.040818974,-0.07328425,0.05732522,-0.045918893,0.02204981,-0.09456029,0.03865776,-0.08551052,-0.025098637,0.019012446,0.0296992,-0.018542018,0.021725629,-0.031607397,-0.030241996,-0.059189714,-0.055572726,0.068485975,-0.026843509,-0.050359305,-0.039718524,-0.051335495,-0.029198922,-0.023698715,-0.108415425,0.03449934,0.0018460591,-0.015304192,-0.03280874,-0.010003045,-0.036281433,-0.1315349,0.05048352,-0.044813126,-0.0047318875,0.0052270144,-0.016520353,-0.27543387,0.08011476,-0.046080478,0.014621836,0.009602288,0.09807057,0.08324751,-0.089071706,-0.06390758,0.076274514,-0.0298653,-0.092666656,0.011163002,-0.060440928,0.009957009,-0.008684147,0.079290025,-0.06833187,0.09521286,-0.051473014,-0.09657264,0.009137643,0.047530606,-0.032898925,0.03960909,-0.052699234,-0.15449384,0.051094133,-0.039578725,-0.048492193,-0.055456292,-0.05663746,-0.06296342,0.081752546,-0.07970784,0.06419934,0.091721445,-0.0091033885,-0.022381665,-0.013531581,-0.022751123,-0.019590834,0.057119813,0.05785569,-0.03209822,-0.00059713086,0.006226117,-0.06907962,0.04034952,-0.036602877,0.059786104,0.07613659,0.039312582,-0.0040241047,0.08080576,0.0032926486,0.016209783,0.04568256,0.028895993,-0.059414327,0.08239177,0.01980626,-0.017165126,-0.028314695,-0.053350247,-0.108290635,0.033336345,-0.03619163,0.04095139,0.020693958,0.013225163,-0.047573168,0.036670543,-0.07500103,0.08985473,0.029805593,-0.033842795,-0.00061138923,0.0042120144,-0.0485695,0.12562321,-0.049648326,0.07518068,0.03968619,-0.006371953,0.08692014,-0.033147972,-0.010462516,0.010144496,0.106765464,-0.014805965,-0.0022889287,0.030828983,0.056755867,0.039400738,-0.044651262,-0.047099996,-0.04392448,-0.009104706,0.046721227,-0.0024272567,0.0715286,0.04491813,0.044894412,-0.056298822,-0.041607037,-0.05741245,0.10747462,0.00787607,0.008624927,-0.023064392,0.0077379835,-0.061658088,0.00585127,0.023748966,0.018935053,-0.05081044,-0.0056883134,0.15161556,-0.16694002,-0.025538038,-0.018280441,0.029876772,-0.0071067554,-0.014925449,0.047011312,-0.021621056,-0.074357755,-0.004381459,-0.0401994,0.13290834,-0.006007726,-0.08381749,-0.07195467,-0.017771797,0.054061994,0.060735356,-0.04792679,-0.35996494,0.0005598321,0.044061065,-0.071090214,-0.011622617,-0.059637476,0.029656421,0.02860122,-0.00017900187,-0.021673031,-0.11244886,0.034447517,-0.00490318,0.01765243,0.0070288037,0.03965398,0.009083786,-0.03852729,-0.076109454,-0.055674817,0.022835964,0.0009941155,0.09975539,-0.04200068,-0.06876503,0.06386636,0.035661973,-0.025555989,-0.12313397,-0.016682532,-0.0014208577,0.017155873,0.09230576,0.023814786,-0.059676573,0.06335737,-0.023226181,-0.03978106,-0.02045629,0.031613853,-0.03269682,0.015362312,-0.014368036,0.0065226257,-0.017055891,0.037998736,0.04690278,0.010364427,-0.023466418,-0.061836842,0.05314168,0.069839105,-0.022512214,2.6312146,0.08066329,-0.060004044,-0.032739244,-0.03611474,0.03803525,0.06997047,0.014695691,0.00042262868,-0.112234086,0.06503348,-0.03993985,0.05710801,-0.10038356,0.07680502,0.07944886,-0.056664836,-0.008703358,0.0038586194,0.054757252,0.19449301,0.07306824,0.0912533,0.17786582,-0.033413008,0.020289682,-0.020685794,-0.03570084,0.02022379,0.08494336,-0.12975068,0.085941225,-0.060003966,-0.12850639,-0.0069573014,-0.041055802,0.06775598,-0.022434939,0.14924718,0.0015352127,-0.026822183,0.07083872,0.07842226,-0.054896645,-0.027316956,0.103937976,-0.17743191,0.088722095,0.021191958,0.082786,-0.073720425,-0.08018552,-0.037515398,0.040489588,0.025258562,1.11285,-0.09182787,-0.02674842,0.013742029,-0.0068877223,0.10682283,0.045539346,-0.021781653,0.10038258,0.08445466,-0.021253837,-0.041635342,-0.08975157,0.057344466,0.006093918,0.091987416,-0.0043257168,0.028735818,0.100680225,0.04593184,-0.06337479,-0.17750518,-0.04424315,0.008645914,0.042023744,-0.062099986,0.033573877,-0.01698867,0.056230206,-0.041732572,0.044067174,-0.024502996,-0.0028649322,-0.020529317,0.057348575,0.026485257,0.09839301,-0.06733924,0.07517382,-0.026892578,-0.002825427,0.11955137,-0.063627146,-0.05225497,0.024426905,-0.0020844592,-0.18669334,-0.085291,-0.021333963,0.02186097,0.04858377,-0.0034394055,0.10812297,0.03373726,-0.008744049,0.015624361,-0.04788058,-0.011679881,-0.015765764,0.10034503,-0.016909815,-0.06886674,0.11866981,0.03507783,-0.08459545,0.00069029327,0.004728078,-0.02370555,0.08668808,-0.066937186,0.0038835492,0.08723316,-0.014358562,0.0515296,0.054226637,0.069111854,0.03886915,-0.0073484937,-0.013455529,-0.0025720347,-0.122569665,-0.01657558,0.081782974,0.03797633,0.02256802,0.03855458,-0.1043214,0.037999664,-0.0039645983,-0.058836177,-0.052499153,-0.007907573,-0.06898555,-0.054433532,0.04584633,0.020217272,-0.062295582,0.032770872,0.10363166,0.065476,-0.013583579,-0.009188251,0.11029846,0.07587247,0.00597208,0.024489002,0.032243405,0.0011901696,0.091036625,0.010076447,0.1522893,0.081088915,-0.054144945,0.015314384,0.050561182,-0.025312407,-0.10892747,-0.06599187,0.039258886,0.01355636,-0.08858834,-0.016237982,-0.06523556,0.006100679,-0.015826788,-0.04558502,-0.0008345351,0.065714054,0.03202824,-0.03808888,0.008251317,0.017671313,0.04763651,0.06863995,-0.012852383,0.0047293473,-0.025827521,0.11103782,-0.01480182,-0.008313702,0.050901882,-0.021981763,-0.11267061,-0.011311308,-0.042017262,0.024194278,-0.014875045,0.019568395,-0.26650843,-0.06316223,-0.081296615,0.07167458,-0.009956386,0.041543994,-0.100915864,-0.028038226,0.051459182,0.061695684,0.025766551,0.020550424,-0.06565638,-0.003962235,-0.0573498,-0.065395504,-0.015018756,0.0107737575,-0.045353062,-0.0019492293,-0.0054209325,-0.11101458,0.018219894,-0.052448817,0.0113601815,0.058082137,-0.00710184,-0.15454198,0.060169764,0.08306101,0.010820272,0.21178499,0.08284376,0.0750227,-0.07185347,-0.065711536,-0.021378146,-0.015658796,-0.1044621,-0.06414747,-0.0037031844,0.015927166,-0.039240096,-0.025103513,0.11811025,-0.12923351,-0.036596928,-0.107077576,-0.067771725,-0.105534874,-0.05200169,-0.035628244,5.1
GCQTSRGLFGNNNTNNINNSSSGMNNASAGLFGSKPUA,-0.12152366,-0.05436967,-0.03363593,-0.0012578971,0.09078435,-0.033441257,-0.08764894,-0.0039506378,0.01913143,-0.07775281,0.008423179,-0.057410013,0.021115731,-0.010574161,0.02029379,-0.007159752,0.0022708543,0.07819427,-0.034418356,-0.038870536,0.055046994,0.035703145,-0.01384539,0.02513729,0.10218159,-0.095371604,-0.026184514,0.019403875,0.0463534,-0.03194659,0.02503727,0.035151597,-0.036596954,0.03540518,0.046221137,-0.041474544,-0.059869647,-0.05509298,0.014769636,0.029952053,-0.013670834,-0.09570664,0.013839157,0.01282162,0.0041310107,0.07804567,0.0032284423,-0.07487121,0.06095753,-0.005658108,-0.060486563,-0.0138357375,-0.0087552285,0.09182806,0.100794986,-0.060905762,0.023477895,0.06862494,-0.027558967,0.010642564,0.05343274,-0.027045494,-0.063857235,0.03946549,-0.12637167,-0.0013585745,-0.026095185,-0.09185632,0.12259154,-0.055612214,-0.13207015,0.015998373,-0.07657333,0.0006735083,-0.03638842,-0.0103269825,0.010725686,-0.081197575,-0.027432075,-0.054317933,-0.027263397,0.12253682,0.00127621,-0.018799238,0.02910592,0.05024342,0.08775954,0.22097254,-0.0077055604,0.015272072,0.02196193,0.09591029,-0.036608066,0.010294056,-0.016123239,0.07689581,-0.07497573,-0.037404377,-0.024120007,0.053319026,0.02065395,0.089260936,0.0038603279,-0.07438366,0.053127088,-0.03797872,-0.037933297,0.014986132,-0.021519113,0.02540049,0.08646544,-0.028048102,-0.024059197,0.023594696,-0.03242167,-0.05529251,0.016565263,-0.037011508,0.08893385,-0.10986574,0.0067903427,-0.027148366,0.032004204,-0.06726085,0.031820085,0.053286217,0.051003657,-0.051778246,-0.026031202,-0.05876826,0.009509472,-0.016295575,0.07727502,-0.051651757,-0.031095654,-0.03163224,0.029442394,0.014581609,-0.025844228,-0.00025604403,-0.015936341,-0.029018382,-0.011498442,-0.26330644,0.031059682,0.80916756,-0.053853977,-0.056152463,-0.023471674,0.06844999,-0.014422777,-0.0040152287,0.016030872,-0.08020154,-0.28060907,0.019749587,-0.11795453,-0.07180687,0.012465693,0.014675014,-0.008756468,0.02049922,-0.05768933,0.0037339025,0.03638236,0.007761985,-0.033208415,0.04271589,0.06047668,-0.009142378,-0.010277091,-0.00071654434,-0.039463636,0.07203777,0.0682175,-0.033493392,-0.13411956,-0.07097722,-0.027177235,-0.03384897,-0.035587005,-0.03593917,0.068461515,-0.038327757,0.030220851,0.0066606523,0.018862432,0.028687438,-0.06182909,-0.050073944,0.008893996,-0.02980319,0.02942427,-0.009177108,0.019389566,0.0033604503,-0.059145443,0.0037269474,0.0047649015,-0.04836633,0.009287035,0.02612566,-0.010466968,-0.05222245,0.060795654,0.0050509223,-0.0136845615,0.046650022,0.07175185,0.038006596,-0.09189253,-0.08870523,0.031955067,-0.03598896,0.0054565175,-0.08455959,-0.027077157,-0.0066443444,-0.04463815,-0.02469861,0.038174085,0.043187402,0.07278076,-0.014475612,-0.040752776,0.015545155,0.05135383,-0.11831995,-0.023154255,0.050165318,-0.02040417,0.015665872,0.021710094,0.008315224,-0.0089168055,0.012760006,-0.019016871,-0.0040754247,0.041439813,-0.05751764,0.077560335,-0.02576387,0.030850183,-0.010607248,-0.0035159695,-0.028693467,0.024031209,-0.103349194,0.05160119,0.0023848638,0.073168516,0.037466563,-0.10021828,0.0184418,0.020433877,0.027625334,0.022015905,0.017623222,0.011832322,0.016782338,0.053881347,0.08721191,-0.026183238,-0.047978062,0.025642421,0.059503037,0.013180157,0.026730394,0.033243425,-0.116137065,-0.024008026,-0.004630092,0.04733505,-0.032498263,-0.009056235,0.24293022,0.0064950823,0.012543768,0.004169329,0.0225131,0.018357296,0.07598791,0.06345416,-0.0035867686,0.019036684,-0.055733602,0.056539364,-0.02823872,0.005648742,-0.058121085,-0.06485458,0.5206729,0.033260696,-0.033978153,-0.009140391,-0.07250019,-0.067776464,0.054080546,0.033254415,-0.08236339,0.042819045,0.0055749887,0.0413578,0.005460663,-0.052954905,0.039083652,-0.08086905,-0.0018082556,-0.018841797,-0.0030730858,0.18029776,-0.035456352,-0.017342385,0.04788723,0.056811146,-0.05085683,0.018216757,-0.075219445,-0.057275034,-0.02322152,0.04782388,0.036046766,-0.045373157,0.029393384,0.013837257,0.058953334,-0.04548784,0.023711074,-0.09809373,0.026678896,-0.01752231,0.115870714,-0.12165123,0.03424117,-0.06727031,0.05617099,0.012154041,-0.01156275,-0.059281044,-0.03966818,0.024617244,-0.05484123,-0.024453126,-0.062629566,0.0028856427,0.021484429,0.03225394,-0.120888315,-0.17813566,-0.0019624108,0.05306012,-0.010593525,0.030784551,0.027759667,-0.03289909,0.06342863,-0.0025794408,-0.019497752,0.081572965,-0.036922365,0.0048864307,0.07702984,-0.07220996,-0.07797004,-0.008266324,0.02607212,0.032673884,-0.06446464,0.039066292,0.06731271,-0.16302663,0.011922172,0.010719624,-0.035601217,-0.08264005,-0.021590825,-0.03584946,0.12171942,0.05128629,0.059254862,0.20542967,0.04636488,-0.022719797,-0.046965826,-0.066346884,-0.045503724,0.014838484,0.007852109,0.05231466,0.058152474,0.039595935,-0.030050075,-0.009440442,-0.00724095,0.024914974,0.012013294,0.05818827,0.007395269,0.058289565,-0.016351586,0.018034235,-0.06339116,-0.017948288,0.040026136,0.092376456,-0.02026517,-0.03677063,-0.046455014,-0.041390635,0.003885849,0.02862683,0.09140895,-0.010673954,-0.05074935,-0.051128678,-0.06496886,-0.012323688,0.0072222515,-0.020067167,0.035254348,0.014975643,0.023187723,-0.012810044,0.011247827,0.0057996465,0.0241484,0.045680337,-0.0128554255,-0.0029163684,0.03469347,-0.16642494,0.018094394,-0.05161003,0.032377895,-0.07677201,-0.05304276,0.0079975845,-0.005401339,0.01268692,-0.05196007,-0.0446355,0.022741135,0.0010139619,-0.017051535,0.01728248,-0.051884793,0.046427123,-0.008522915,0.119905844,0.04288924,-0.07150944,-0.060760938,0.0013237929,0.00635356,0.08355802,-0.005431241,0.040358074,-0.043842766,-0.08785968,-0.029052913,0.03098702,-0.049591143,-0.06135828,0.0640475,0.005724717,-0.080759995,0.051603336,-0.049209047,0.059181023,-0.011678347,0.0398629,0.03854408,0.017221954,-0.0076566637,0.06125561,-0.02965193,-0.032167625,0.021340381,-0.03471399,0.060036592,0.06689492,0.0003338013,-0.06285266,-0.07328834,-0.01621202,0.07501169,-0.009589733,-0.011376537,-0.11523497,0.0047132703,-0.045937944,-0.005815491,-0.03028148,-0.013653469,-0.018112648,0.015305957,0.018621903,0.06566745,0.10994355,-0.31713706,0.05558017,-0.022078523,-0.023018451,-0.030051181,0.012597623,0.003466855,-0.038194917,0.08941146,-0.019620623,0.036678128,-0.005338731,-0.08601018,0.010075686,0.06257473,-0.036236674,-0.04012521,0.058063634,-0.009990292,0.0071466668,0.027389362,0.00531768,0.020350281,-0.06263779,-0.060332082,0.01123268,-0.058077283,0.06535204,0.007265333,-0.015567593,0.051567696,-0.03947396,-0.021345984,-0.04352752,0.1249053,0.032357,-0.0059333923,0.06242317,-0.0774413,-0.0065995394,-0.01799244,0.01579527,0.00824021,0.019659694,-0.03529208,-0.030083794,-0.0030997,-0.061194398,-0.07558932,-0.07378706,-0.03801711,0.029678449,0.033751223,0.009716165,0.008453414,-0.064405635,0.046455555,0.017135363,0.011812347,-0.0018025137,0.052723803,0.17077617,-0.08880196,0.13502961,0.07357426,-0.0038725422,0.018609663,-0.06575097,-0.015265855,0.0012622289,-0.028801382,-0.005771587,0.015288537,-0.06541721,-0.11768478,-0.109704934,-0.017702488,0.01991508,-0.028799588,0.13562007,-0.0021356468,0.029941086,0.010858278,0.010772837,0.016140554,0.069241986,-0.071788594,0.004395836,0.0066032796,-0.02746307,-0.010294566,-0.041584823,0.027803008,0.07108071,0.041060187,-0.0091046095,-0.07194756,0.07842628,0.0708382,-0.04669039,0.06609716,0.020276578,0.051205344,0.0090532135,-0.05728685,0.035803553,-0.04746825,0.05926826,-0.040864114,-0.06377798,0.032018863,-0.007884701,-0.063195415,-0.06233997,-0.027572375,0.12357001,0.022519235,-0.020850565,0.08845869,-0.016048025,0.038903665,0.058857054,-0.046431117,-0.008929359,0.05705536,0.057902597,-0.003054617,0.0258443,0.0053910394,0.0096826125,-0.08909081,-0.014569891,-0.012606099,-0.016309354,-0.014759931,-0.0096925385,0.088036835,0.013268987,-0.03194695,-0.037728034,0.003076533,0.02645042,-0.037891943,0.030319208,-0.010650814,0.0004481405,0.01047048,-0.1609622,-0.030645046,-0.022392185,-0.070155576,-0.013385043,-0.061450202,0.032491397,-0.059374012,-0.10374608,0.053688042,0.047549274,-0.07463793,-0.015772054,0.04839481,-0.05157874,0.07398592,0.0026546586,-0.008163394,-0.032803,-0.018756902,-0.0067698685,-0.04246393,0.046411566,0.08768371,-0.023085438,-0.055593155,0.0058863424,-0.05567323,-0.052760363,0.00589837,-0.07668494,0.045945056,0.10492406,-0.039416783,-0.06497471,0.011289762,-0.076783024,-0.015037301,0.28845233,-0.08110576,-0.0097144125,0.06617021,-0.01918723,-0.0050475476,0.012790355,0.10405364,0.030994449,-0.11741272,0.025877003,0.016343862,0.0043411595,-0.009606591,-0.055144053,-0.059233405,0.039686948,-0.022951316,-0.078496456,-0.0100857485,0.07602453,0.022498671,-0.021132253,-0.049550522,0.098847784,0.00017304812,-0.00976667,-0.041698724,-0.00955383,-0.021498602,0.014572205,-0.061438043,0.093055174,-0.10140656,0.0061089685,-0.14296806,0.04632352,-0.05357337,-0.08669016,0.028455725,0.049024098,-0.08677019,-0.03830028,-0.040516738,-0.06898167,0.018444248,-0.03031305,-0.012599577,0.0064651645,0.062421776,0.016129391,-0.05470745,-0.10288487,0.015618408,0.013747121,0.049212463,-0.03087549,0.04455251,0.02742745,-0.032836072,0.04413457,0.04012014,-0.025903275,-0.019892614,-0.01554098,0.048918016,-0.04799656,0.048777875,-7.173233e-05,-0.049095325,0.008715603,-0.008357015,-0.041962788,-0.023161393,-0.005046421,0.08591183,-0.030526895,0.0075662895,0.012862725,0.033681218,0.02758553,-0.015598202,0.017881652,0.046749197,0.008894568,4.7821126,0.10614495,0.0033359607,-0.04894199,-0.030514259,0.042421885,-0.10495405,0.054492723,0.08684212,-0.03341969,-0.066624746,0.036135845,0.031850614,-0.06632676,0.06689913,0.060783815,-0.06681541,0.09844782,-0.023163196,-0.028141871,0.7142607,-0.046396576,-0.08282967,0.0033040524,0.04703685,0.032595858,0.013850138,-0.062368132,0.022678312,-0.007978082,0.09227598,-0.011880654,-0.0049100113,-0.13709123,0.105479,-0.030390143,-0.066059306,0.03501297,0.007707664,-0.030957391,-0.004888787,0.066640295,0.0074273595,0.039457828,0.059640545,0.057486404,0.06295849,-0.029538194,0.0067219026,-0.05570499,0.07751833,0.015007094,0.012047166,-0.045114443,0.37268695,-0.7152437,-0.044564977,-0.050358582,-0.009437722,0.016146297,-0.07565232,0.0064617796,0.10739008,0.030656869,-0.028131092,0.024175059,0.011330307,-0.0610001,0.061582565,-0.100556865,0.0039665224,-0.038740974,0.08623647,-0.04751573,0.05347932,0.086044624,-0.024665909,0.020494265,0.028413827,-0.0049662665,-0.030250141,-0.038405895,0.06398362,0.06449561,-0.038603902,0.024599992,0.00819007,0.044007696,0.05232962,-0.018922996,0.06405173,-0.04680431,0.056708187,-0.03834067,-0.060533755,0.045192223,-0.032045826,-0.039206296,0.0066672517,-0.020818697,-0.114345394,0.028447185,-0.048365474,0.0026878477,0.035872772,-0.030561771,0.018928507,-0.002491408,0.027020067,-0.051600438,0.00014929511,-0.0024447783,0.033420138,-0.057787098,-0.0060868026,-0.0006451363,-0.09375143,-0.0036606092,-0.05437399,-0.015467212,0.0012844752,0.026000332,-0.0726929,-0.0070956773,0.05603873,0.03206149,0.023495559,0.019521708,0.090630904,0.058960177,0.028047403,-0.0050947694,0.08944295,-0.010978573,-0.040682346,0.009196448,0.0329879,-0.086228885,-0.035565216,0.03785228,-0.049069475,-0.051642906,-0.01999214,-0.043452956,0.036789782,-0.027603194,0.020463455,0.0029195137,-0.018721571,0.025408218,-0.020308625,0.049235158,0.026738545,0.046160728,-0.031903453,0.050273318,-0.00034998404,-0.06420234,-0.08708114,-0.05233863,-0.009172501,0.07703613,-0.016801713,0.048149157,0.029036332,0.049934305,-0.047853373,-0.056262095,0.107202604,-0.051130712,0.021296015,-0.02980637,-0.06270738,-0.046962835,-0.059289835,0.013291532,-0.00014348188,-0.05297802,0.008144289,0.012192322,0.0070108594,0.0031726137,0.033605218,-0.028291497,0.022431633,0.007281852,0.02191959,-0.065899,0.015965285,-0.060467057,-0.029209431,0.022894815,-0.021682678,0.02769878,-0.047152013,0.0033059237,0.11023156,-0.0005475447,-0.0038877123,0.087323114,0.03379405,-0.013898524,0.005617035,0.085144036,-0.047958396,0.016047146,-0.026150007,-0.05971566,0.06792925,0.028968718,-0.04496196,-0.058288705,-0.0785061,-0.016886154,-0.036299,-0.0063881716,0.018082425,-0.0039693825,0.046260137,-0.030102372,0.012916863,-0.0039400784,0.0006634936,-0.004513637,7.243212e-05,-0.054985095,0.013968339,0.0681008,0.0071284324,-0.013262208,-0.017668197,-0.015988827,-0.01587608,-0.03539156,-0.12812372,-0.008927293,-0.012655179,-0.020556388,-0.084619716,0.022563966,-0.041698582,-0.08136276,-0.055959962,0.031366933,0.020268014,-0.0393141,0.007294501,-0.07174035,0.06767143,-0.014929918,0.004646319,-0.11322085,-0.02720685,0.03542496,0.01737481,1.6
DSHAKRHHGYKRKFHEKHHSHRGY,-0.012231661,0.047835834,-0.03809895,0.049150787,-0.009024604,0.058257535,-0.059722178,-0.0060360064,-0.06621087,-0.0261627,-0.010218289,-0.09896408,0.005558518,0.08767491,0.15836528,0.0002448278,0.013574809,0.08550183,-0.0056776563,0.01303283,-0.01836987,-0.024107818,-0.014146656,-0.012336438,0.10114603,-0.017838746,0.08022459,0.070879534,0.011815663,0.09271179,-0.09646516,0.00088311906,-0.11670473,0.066894,0.15623198,0.0032544497,0.036439314,0.07042785,0.010944102,-0.05991084,0.064978905,0.024520643,0.03867712,-0.014952347,-0.04981839,0.05551819,-0.11172298,-0.04790254,0.038017116,-0.08743077,-0.0011766753,0.07508944,-0.04323066,-0.2859971,0.10166777,-0.060242884,-0.038057037,-0.14535096,0.016547618,-0.0027719995,0.11084263,-0.014968271,0.008090575,0.056694627,-0.10440052,0.008981848,-0.10859004,0.16121237,-0.030335424,-0.003374307,0.03804203,-0.0033355195,-0.11737393,-0.11783576,0.0677979,0.017164687,-0.024910657,-0.022716139,-0.17995712,-0.036048613,-0.03456356,0.06882836,0.047110636,-0.06129146,-0.021637546,0.017508673,0.06489352,0.17709072,0.11456461,0.008962666,-0.009220112,-0.031102479,0.029796353,0.041999612,0.041925926,0.12259665,0.19795367,0.009435088,0.07795298,0.012013614,0.054181695,0.032109465,0.065696254,0.03735987,0.038326465,-0.03813783,0.04927604,0.058424834,0.031242367,-0.036009397,0.018276008,-0.09564943,0.025531929,0.04267899,0.029469658,0.021402247,0.004597648,0.013308932,-0.02462958,-0.034543574,-0.0039541647,0.028188499,-0.045272954,-0.024280658,0.054368403,0.020168675,0.04779835,0.0027868026,-0.05401051,-0.09000427,-0.06363116,-0.015439132,0.039487388,0.053244356,0.016348299,-0.10808536,0.060567014,0.033538297,0.027187286,-0.018862505,-0.018745001,0.0053335396,-0.028883507,0.35649088,-0.14393708,0.5100861,-0.0012023372,-0.046227757,-0.056887228,0.012132819,0.010214821,0.008127859,0.024258558,0.030496363,-0.029084692,0.13642393,-0.017576648,0.012575208,0.06158547,-0.102356195,-0.031967774,0.050644793,0.106202684,0.038935855,-0.014381355,-0.060552675,0.006603225,0.0355908,0.08458425,0.068117335,0.056311075,0.09282932,-0.06598279,0.09570889,-0.09729952,0.016313741,-0.08219156,0.0012102566,0.009782657,-0.04027704,-0.0514101,-0.124140605,-0.0981073,0.06615825,0.02691972,0.054476883,-0.014746517,-0.062457934,0.0051201647,-0.09085559,0.042041454,-0.06340847,-0.01452456,0.009026452,-0.023337808,0.041124545,0.026183408,-0.02741711,-0.052337084,0.03898108,-0.047388203,0.06844048,0.021765206,-0.026459591,-0.03868022,0.008412375,-0.10384391,0.0062100464,0.009753502,-0.045665897,-0.115419716,-0.13664517,0.0318388,-0.030539151,-0.030047916,0.022005059,0.07239763,0.07860781,0.038706355,-0.04312987,0.1836443,-0.015519415,0.009764668,-0.0558417,-0.028145386,0.0435701,0.057801254,-0.07852054,-0.020830167,-0.0013346111,0.002203763,-0.023230365,-0.004918361,-0.03356428,-0.06557136,0.003606358,-0.19135669,-0.06356036,0.021553814,-0.006758853,-0.014429478,-0.09194873,-0.026319746,0.05943545,0.0024805912,-0.14345305,-0.015911344,0.07636669,-0.018736823,0.06708197,0.09505331,-0.050863598,-0.003300284,0.11972768,-0.062182,0.070613526,0.03727591,-0.033802126,-0.010308801,-0.07958868,-0.0027339407,-0.06645609,-0.054650363,0.060832758,-0.04366972,0.02483186,-0.097922124,-0.04344577,-0.03697624,-0.17382923,0.01381209,0.07739551,0.03453625,0.010184958,-0.055482306,0.4238302,-0.05018325,0.049414422,-0.033332247,0.083915755,-0.010559065,0.008249085,-0.061798513,-0.031159732,0.007145821,0.027590789,-0.0063739936,0.04484637,0.047933653,0.009771391,0.08467584,0.68818,0.06243133,0.058314048,-0.028116556,-0.02807904,-0.028521482,0.0043109963,0.018139316,-0.112317964,-0.12396341,0.025146835,0.028926887,-0.017704282,0.010688262,0.07820012,-0.085017644,0.026542135,-0.050186064,0.09124388,0.025570493,-0.009687967,0.039412297,0.017067643,0.031545836,-0.025835054,-0.00016787332,-0.09960559,0.103432655,-0.0630455,0.041503828,-0.020539649,-0.07475774,-0.05808002,0.018717865,0.07099356,0.016782414,0.0022490998,0.21311665,0.15188752,-0.028270263,0.060116053,-0.013517845,-0.051589854,-0.0387183,0.05944786,0.039776746,-0.072582096,0.022510529,-0.14995462,0.06993181,-0.008187326,0.07801408,-0.024345888,-0.075241014,0.07519763,-0.049261406,-0.00983691,-0.044207558,-0.03987009,0.05990064,-0.02547137,0.005988556,0.082680695,-0.042279646,0.057928964,0.17374104,-0.017313989,0.003651681,-0.16296476,-0.03881099,0.036330186,0.025719766,0.05434829,-0.123193264,0.027134974,-0.023786265,-0.11990083,-0.015503358,-0.041614797,0.018702563,-0.010375692,0.03380371,0.05954987,-0.064582184,0.0071446653,-0.068793856,0.07780724,0.10154644,-0.05312896,0.06878611,-0.060177106,-0.01972899,0.052524626,-0.048808977,0.06996762,-0.041075036,-0.09754788,0.041515265,0.011504164,-0.040311232,0.03732137,0.051103726,-0.046542384,-0.058655236,-0.1251335,0.044483576,0.0748573,0.018605584,-0.063308276,-0.076677285,-0.036368787,-0.026325999,0.13159281,-0.04324675,-0.045581456,0.025566926,-0.011266127,-0.017072598,0.045468047,-0.011916807,0.0045244475,0.04480532,-0.045020524,-0.057743456,0.03514075,-0.05773962,0.109041646,0.0052302824,-0.0379324,0.017409213,0.028177764,0.01061892,0.017202727,-0.09610108,0.06991264,0.04279605,0.015674332,0.04270738,-0.012846275,-0.018886466,-0.09883657,0.034195386,-0.016530039,-0.023846509,-0.18066582,0.010315671,-0.07095182,0.0015082379,-0.0631101,0.04151785,-0.008833287,-0.02790119,0.03971028,-0.0053834897,-0.0006570673,-0.016830487,0.02099089,0.05635113,0.04061744,-0.024408001,-0.00016742371,-0.015985398,0.06724031,-0.042869844,0.049276944,0.15517896,0.11333211,0.14981458,0.19587132,-0.025058148,0.012376134,0.02901624,-0.030848838,0.0036900016,-0.044359937,-0.06944799,-0.0014549554,0.08419686,0.06322861,0.08973444,-0.03691386,-0.0835259,-0.04990077,-0.0057436205,-0.006866462,0.038999036,-0.091969065,0.03982202,0.09800029,0.026356442,0.030406762,-0.03621794,-0.052992824,0.08229903,-0.046821233,-0.025103431,-0.059163827,0.020767527,0.005650525,-0.012553439,0.065338194,-0.045620248,0.07977091,0.11149451,-0.03562641,-0.027017351,0.0064242464,-0.04596907,0.31964895,0.041935444,0.0378064,-0.08105702,-0.09166469,-0.101862505,0.12077038,-0.022967054,0.002350859,-0.047103707,-0.031070111,0.056679036,0.10015317,0.018941453,-0.0720542,0.012425478,-0.012246417,-0.028005987,0.069564745,0.10339718,0.020561595,0.10636135,-0.015182508,-0.030362885,-0.019048564,0.047962822,0.0850226,-0.03499221,0.11844136,-0.05087206,0.07678422,-0.028762361,0.045065455,-0.04062758,-0.22081688,-0.019537952,-0.05738026,0.041688733,0.12692253,-0.08870215,-0.021220377,0.037382986,-0.01959734,-0.041221004,0.04222172,0.050341167,0.066314735,0.06915732,-0.04118141,-0.05485002,-0.05420222,0.10951119,0.13583207,0.00058878463,0.07464056,-0.04698855,0.06840494,0.013806736,0.053341802,0.09273494,-0.079413705,-0.12246593,-0.0333588,0.004460701,-0.12560235,-0.021462262,0.009505864,0.19898011,-0.0048695602,-0.017178617,0.1114731,-0.051980853,-0.068123944,0.051698208,-0.054045517,-0.0012590415,-0.014977084,-0.07968864,0.047450684,-0.03213651,0.02313792,-0.06456631,-0.024800597,0.023410678,-0.05684354,0.055439804,-0.08001738,-0.04993479,-0.03370235,-0.025596406,0.053866856,-0.1157688,-0.03762512,-0.12789658,0.061549492,-0.0641445,-0.076485805,0.007303286,-0.0006118474,-0.015615293,0.007588068,0.03159833,-0.11205233,-0.0455964,-0.021723513,-0.059254408,0.00044304447,0.004894622,0.05425713,-0.02673481,-0.09512349,-0.058560234,-0.0684234,-0.012705375,-0.062037706,-0.095705755,-0.012585232,0.08224892,-0.015622878,-0.07806267,-0.06576578,-0.0131541835,-0.020670172,-0.007201644,-0.025122257,0.009415064,0.051972188,-0.035815984,-0.011642837,0.015531315,-0.005698663,-0.042116538,-0.105179034,-0.12700698,-0.043001983,-0.01783724,0.07243135,-0.14327271,-0.11998624,-0.08147737,-0.015472284,0.041964594,0.013154337,-0.004059366,0.0129543645,-0.025595423,0.03572779,0.023656407,0.02594033,-0.0058379415,-0.14522998,0.020899523,-0.09331392,0.074385054,0.068778,-0.09091226,0.03868212,0.005659177,-0.15818764,0.06481296,0.02960609,-0.07710229,0.023488482,-0.04303815,-0.04219909,0.01201261,-0.039164636,0.060549285,-0.026051842,-0.015830189,-0.02824854,0.07254545,0.15304519,-0.10490722,-0.0104456525,-0.07230188,-0.040800177,-0.031176997,-0.06989106,0.10444012,0.038124897,0.008809975,0.01193067,-0.0451748,0.011850942,0.2644444,-0.07648899,0.05437552,0.026808063,0.035373252,0.030459616,-0.04501275,-0.046167172,-0.02359681,0.029973479,0.05974279,-0.031774502,-0.02164911,-0.08089953,-0.013838655,0.027813999,0.036750596,-0.02953476,-0.0689655,-0.062147863,-0.0019178425,-0.08685655,-0.05369733,-0.05337045,-0.011625504,0.008566387,-0.058039494,-0.08630802,-0.0010676573,0.0976018,-0.052349303,0.013932829,-0.27077895,-0.12552795,-0.026136627,-0.1458578,0.06434402,-0.057288013,-0.04603529,-0.018911779,0.032799713,-0.0080048125,-0.0104995165,0.05674409,-0.046106882,0.107504696,-0.1283542,-0.051810447,0.09731456,-0.011317555,0.03388721,-0.09467503,0.005134861,0.032433696,0.08003123,0.017348366,-0.011067047,0.023222316,-0.00582776,0.0031732852,-0.07144952,-0.015429666,0.016153779,-0.021067973,-0.044242594,0.046650473,0.044415567,0.003300833,0.01222082,0.014857501,-0.04786938,0.04870017,-0.026935538,-0.03483169,0.018164657,0.07747148,0.10680353,-0.0024664826,-0.03194604,0.027980264,0.0054929955,0.050718658,-0.1105072,-0.08851798,0.027211584,4.475018,-0.022804966,0.035857324,-0.010303312,-0.033138976,-0.18064305,-0.051378585,-0.048693217,0.19910541,0.027782308,0.1387039,0.02403507,0.022032721,0.031582907,0.06217619,0.21618429,-0.11172484,-0.06831585,0.07296361,0.057224087,0.4149226,-0.0060161026,-0.07537497,0.049585637,0.011364375,0.027036507,0.07404663,-0.11451144,0.013402602,0.14513078,-0.03783451,0.0017865959,0.024117542,-0.09952316,0.022791605,0.037246164,-0.013352465,-0.016255451,0.0384159,-0.030129237,-0.0076716114,-0.11319089,0.004884904,0.0031189471,0.059377134,0.00957195,-0.21195617,0.0015517137,0.011550179,0.054630656,-0.07163172,0.004593349,0.04184443,0.05532161,0.2535997,-1.5915911,-0.022260653,-0.00079038716,0.051974975,-0.014968898,0.054655157,-0.03255353,0.02757453,-0.011973445,-0.13619475,0.011418203,-0.05059689,-0.008448066,0.114415884,-0.010571063,0.060699444,0.0127403345,-0.030201646,-0.08570826,0.09135166,0.024520347,-0.037082665,-0.05938101,-0.01816355,-0.01026163,0.0144862365,0.09306116,0.018656986,-0.02344772,-0.07317912,-0.021580266,-0.05872079,-0.013926878,-0.0052336,0.09762487,0.045789454,0.02662732,-0.03665535,-0.02210373,-0.01570491,-0.016746325,0.0030949125,0.005841449,0.035818003,-0.029992588,0.041474506,0.02902666,-0.09348159,-0.076413386,-0.063013844,-0.008206131,0.021204948,0.04500923,0.017077185,-0.0050572734,-0.015836101,-0.008173067,-0.010362282,-0.0049927062,0.071941204,-0.03421482,-0.08772261,0.05642929,0.084630355,-0.07651507,0.03462617,0.005646057,-0.044194203,-0.08880388,-0.011387034,-0.009198746,-0.04750152,0.10374625,-0.07882379,-0.088522896,-0.01659488,-0.041925494,0.018326612,-0.051913425,-0.14174083,0.009425152,-0.12209093,-0.02660375,0.0047735223,0.00034900068,0.046993818,0.051507812,-0.020460222,0.055013366,-0.012259882,-0.03833064,-0.060632724,-0.024680486,-0.094649956,0.111617364,-0.002176466,0.006228574,0.021621756,-0.050253294,-0.06956177,0.026738776,-0.008156223,0.09409035,0.1334576,-0.05780794,0.006334354,-0.096679516,0.019363778,0.029319564,0.06412749,-0.04130304,0.0031636683,0.03223714,-0.018265082,0.06776421,0.04267107,-0.024279075,-0.014956244,-0.08355669,0.008302544,0.06481761,-0.11867614,-0.00045279556,0.063195035,0.04094976,0.023742156,-0.057833135,-0.011770933,-0.014270188,-0.061426822,-0.022621306,-0.0016974219,-0.079926684,-0.04662037,-0.06475001,0.114119895,0.008095447,0.03071618,0.0017002672,-0.0007860437,0.042147454,0.09641768,0.0053464593,-0.046217654,0.02107397,0.05406537,0.068444766,-0.08211417,0.12647915,-0.039193865,0.017793894,0.09524083,0.024450302,0.079397745,0.07245927,-0.017349243,-0.11779613,0.14223512,-0.058144,0.023987113,-0.043449435,0.06747135,-0.04758147,-0.03759209,-0.05573413,0.024696589,-0.01518566,-0.10850625,-0.02729728,0.15314248,-0.060207136,-0.104845636,-0.041183192,0.05248863,0.00034769738,-0.016547285,-0.0012492769,0.041993443,0.031250935,0.010920889,-0.0018123823,-0.046234727,-0.0749134,-0.05972761,-0.010530721,-0.036264155,0.028936835,-0.05286821,-0.030201865,0.015254443,0.029002253,0.022172898,0.04035271,-0.042964358,0.040828638,-0.046042535,-0.089981645,-0.038269565,0.07525956,0.06705491,1.4
DSHAKRHHGYKRKFHEKHHSHRGY,-0.012231661,0.047835834,-0.03809895,0.049150787,-0.009024604,0.058257535,-0.059722178,-0.0060360064,-0.06621087,-0.0261627,-0.010218289,-0.09896408,0.005558518,0.08767491,0.15836528,0.0002448278,0.013574809,0.08550183,-0.0056776563,0.01303283,-0.01836987,-0.024107818,-0.014146656,-0.012336438,0.10114603,-0.017838746,0.08022459,0.070879534,0.011815663,0.09271179,-0.09646516,0.00088311906,-0.11670473,0.066894,0.15623198,0.0032544497,0.036439314,0.07042785,0.010944102,-0.05991084,0.064978905,0.024520643,0.03867712,-0.014952347,-0.04981839,0.05551819,-0.11172298,-0.04790254,0.038017116,-0.08743077,-0.0011766753,0.07508944,-0.04323066,-0.2859971,0.10166777,-0.060242884,-0.038057037,-0.14535096,0.016547618,-0.0027719995,0.11084263,-0.014968271,0.008090575,0.056694627,-0.10440052,0.008981848,-0.10859004,0.16121237,-0.030335424,-0.003374307,0.03804203,-0.0033355195,-0.11737393,-0.11783576,0.0677979,0.017164687,-0.024910657,-0.022716139,-0.17995712,-0.036048613,-0.03456356,0.06882836,0.047110636,-0.06129146,-0.021637546,0.017508673,0.06489352,0.17709072,0.11456461,0.008962666,-0.009220112,-0.031102479,0.029796353,0.041999612,0.041925926,0.12259665,0.19795367,0.009435088,0.07795298,0.012013614,0.054181695,0.032109465,0.065696254,0.03735987,0.038326465,-0.03813783,0.04927604,0.058424834,0.031242367,-0.036009397,0.018276008,-0.09564943,0.025531929,0.04267899,0.029469658,0.021402247,0.004597648,0.013308932,-0.02462958,-0.034543574,-0.0039541647,0.028188499,-0.045272954,-0.024280658,0.054368403,0.020168675,0.04779835,0.0027868026,-0.05401051,-0.09000427,-0.06363116,-0.015439132,0.039487388,0.053244356,0.016348299,-0.10808536,0.060567014,0.033538297,0.027187286,-0.018862505,-0.018745001,0.0053335396,-0.028883507,0.35649088,-0.14393708,0.5100861,-0.0012023372,-0.046227757,-0.056887228,0.012132819,0.010214821,0.008127859,0.024258558,0.030496363,-0.029084692,0.13642393,-0.017576648,0.012575208,0.06158547,-0.102356195,-0.031967774,0.050644793,0.106202684,0.038935855,-0.014381355,-0.060552675,0.006603225,0.0355908,0.08458425,0.068117335,0.056311075,0.09282932,-0.06598279,0.09570889,-0.09729952,0.016313741,-0.08219156,0.0012102566,0.009782657,-0.04027704,-0.0514101,-0.124140605,-0.0981073,0.06615825,0.02691972,0.054476883,-0.014746517,-0.062457934,0.0051201647,-0.09085559,0.042041454,-0.06340847,-0.01452456,0.009026452,-0.023337808,0.041124545,0.026183408,-0.02741711,-0.052337084,0.03898108,-0.047388203,0.06844048,0.021765206,-0.026459591,-0.03868022,0.008412375,-0.10384391,0.0062100464,0.009753502,-0.045665897,-0.115419716,-0.13664517,0.0318388,-0.030539151,-0.030047916,0.022005059,0.07239763,0.07860781,0.038706355,-0.04312987,0.1836443,-0.015519415,0.009764668,-0.0558417,-0.028145386,0.0435701,0.057801254,-0.07852054,-0.020830167,-0.0013346111,0.002203763,-0.023230365,-0.004918361,-0.03356428,-0.06557136,0.003606358,-0.19135669,-0.06356036,0.021553814,-0.006758853,-0.014429478,-0.09194873,-0.026319746,0.05943545,0.0024805912,-0.14345305,-0.015911344,0.07636669,-0.018736823,0.06708197,0.09505331,-0.050863598,-0.003300284,0.11972768,-0.062182,0.070613526,0.03727591,-0.033802126,-0.010308801,-0.07958868,-0.0027339407,-0.06645609,-0.054650363,0.060832758,-0.04366972,0.02483186,-0.097922124,-0.04344577,-0.03697624,-0.17382923,0.01381209,0.07739551,0.03453625,0.010184958,-0.055482306,0.4238302,-0.05018325,0.049414422,-0.033332247,0.083915755,-0.010559065,0.008249085,-0.061798513,-0.031159732,0.007145821,0.027590789,-0.0063739936,0.04484637,0.047933653,0.009771391,0.08467584,0.68818,0.06243133,0.058314048,-0.028116556,-0.02807904,-0.028521482,0.0043109963,0.018139316,-0.112317964,-0.12396341,0.025146835,0.028926887,-0.017704282,0.010688262,0.07820012,-0.085017644,0.026542135,-0.050186064,0.09124388,0.025570493,-0.009687967,0.039412297,0.017067643,0.031545836,-0.025835054,-0.00016787332,-0.09960559,0.103432655,-0.0630455,0.041503828,-0.020539649,-0.07475774,-0.05808002,0.018717865,0.07099356,0.016782414,0.0022490998,0.21311665,0.15188752,-0.028270263,0.060116053,-0.013517845,-0.051589854,-0.0387183,0.05944786,0.039776746,-0.072582096,0.022510529,-0.14995462,0.06993181,-0.008187326,0.07801408,-0.024345888,-0.075241014,0.07519763,-0.049261406,-0.00983691,-0.044207558,-0.03987009,0.05990064,-0.02547137,0.005988556,0.082680695,-0.042279646,0.057928964,0.17374104,-0.017313989,0.003651681,-0.16296476,-0.03881099,0.036330186,0.025719766,0.05434829,-0.123193264,0.027134974,-0.023786265,-0.11990083,-0.015503358,-0.041614797,0.018702563,-0.010375692,0.03380371,0.05954987,-0.064582184,0.0071446653,-0.068793856,0.07780724,0.10154644,-0.05312896,0.06878611,-0.060177106,-0.01972899,0.052524626,-0.048808977,0.06996762,-0.041075036,-0.09754788,0.041515265,0.011504164,-0.040311232,0.03732137,0.051103726,-0.046542384,-0.058655236,-0.1251335,0.044483576,0.0748573,0.018605584,-0.063308276,-0.076677285,-0.036368787,-0.026325999,0.13159281,-0.04324675,-0.045581456,0.025566926,-0.011266127,-0.017072598,0.045468047,-0.011916807,0.0045244475,0.04480532,-0.045020524,-0.057743456,0.03514075,-0.05773962,0.109041646,0.0052302824,-0.0379324,0.017409213,0.028177764,0.01061892,0.017202727,-0.09610108,0.06991264,0.04279605,0.015674332,0.04270738,-0.012846275,-0.018886466,-0.09883657,0.034195386,-0.016530039,-0.023846509,-0.18066582,0.010315671,-0.07095182,0.0015082379,-0.0631101,0.04151785,-0.008833287,-0.02790119,0.03971028,-0.0053834897,-0.0006570673,-0.016830487,0.02099089,0.05635113,0.04061744,-0.024408001,-0.00016742371,-0.015985398,0.06724031,-0.042869844,0.049276944,0.15517896,0.11333211,0.14981458,0.19587132,-0.025058148,0.012376134,0.02901624,-0.030848838,0.0036900016,-0.044359937,-0.06944799,-0.0014549554,0.08419686,0.06322861,0.08973444,-0.03691386,-0.0835259,-0.04990077,-0.0057436205,-0.006866462,0.038999036,-0.091969065,0.03982202,0.09800029,0.026356442,0.030406762,-0.03621794,-0.052992824,0.08229903,-0.046821233,-0.025103431,-0.059163827,0.020767527,0.005650525,-0.012553439,0.065338194,-0.045620248,0.07977091,0.11149451,-0.03562641,-0.027017351,0.0064242464,-0.04596907,0.31964895,0.041935444,0.0378064,-0.08105702,-0.09166469,-0.101862505,0.12077038,-0.022967054,0.002350859,-0.047103707,-0.031070111,0.056679036,0.10015317,0.018941453,-0.0720542,0.012425478,-0.012246417,-0.028005987,0.069564745,0.10339718,0.020561595,0.10636135,-0.015182508,-0.030362885,-0.019048564,0.047962822,0.0850226,-0.03499221,0.11844136,-0.05087206,0.07678422,-0.028762361,0.045065455,-0.04062758,-0.22081688,-0.019537952,-0.05738026,0.041688733,0.12692253,-0.08870215,-0.021220377,0.037382986,-0.01959734,-0.041221004,0.04222172,0.050341167,0.066314735,0.06915732,-0.04118141,-0.05485002,-0.05420222,0.10951119,0.13583207,0.00058878463,0.07464056,-0.04698855,0.06840494,0.013806736,0.053341802,0.09273494,-0.079413705,-0.12246593,-0.0333588,0.004460701,-0.12560235,-0.021462262,0.009505864,0.19898011,-0.0048695602,-0.017178617,0.1114731,-0.051980853,-0.068123944,0.051698208,-0.054045517,-0.0012590415,-0.014977084,-0.07968864,0.047450684,-0.03213651,0.02313792,-0.06456631,-0.024800597,0.023410678,-0.05684354,0.055439804,-0.08001738,-0.04993479,-0.03370235,-0.025596406,0.053866856,-0.1157688,-0.03762512,-0.12789658,0.061549492,-0.0641445,-0.076485805,0.007303286,-0.0006118474,-0.015615293,0.007588068,0.03159833,-0.11205233,-0.0455964,-0.021723513,-0.059254408,0.00044304447,0.004894622,0.05425713,-0.02673481,-0.09512349,-0.058560234,-0.0684234,-0.012705375,-0.062037706,-0.095705755,-0.012585232,0.08224892,-0.015622878,-0.07806267,-0.06576578,-0.0131541835,-0.020670172,-0.007201644,-0.025122257,0.009415064,0.051972188,-0.035815984,-0.011642837,0.015531315,-0.005698663,-0.042116538,-0.105179034,-0.12700698,-0.043001983,-0.01783724,0.07243135,-0.14327271,-0.11998624,-0.08147737,-0.015472284,0.041964594,0.013154337,-0.004059366,0.0129543645,-0.025595423,0.03572779,0.023656407,0.02594033,-0.0058379415,-0.14522998,0.020899523,-0.09331392,0.074385054,0.068778,-0.09091226,0.03868212,0.005659177,-0.15818764,0.06481296,0.02960609,-0.07710229,0.023488482,-0.04303815,-0.04219909,0.01201261,-0.039164636,0.060549285,-0.026051842,-0.015830189,-0.02824854,0.07254545,0.15304519,-0.10490722,-0.0104456525,-0.07230188,-0.040800177,-0.031176997,-0.06989106,0.10444012,0.038124897,0.008809975,0.01193067,-0.0451748,0.011850942,0.2644444,-0.07648899,0.05437552,0.026808063,0.035373252,0.030459616,-0.04501275,-0.046167172,-0.02359681,0.029973479,0.05974279,-0.031774502,-0.02164911,-0.08089953,-0.013838655,0.027813999,0.036750596,-0.02953476,-0.0689655,-0.062147863,-0.0019178425,-0.08685655,-0.05369733,-0.05337045,-0.011625504,0.008566387,-0.058039494,-0.08630802,-0.0010676573,0.0976018,-0.052349303,0.013932829,-0.27077895,-0.12552795,-0.026136627,-0.1458578,0.06434402,-0.057288013,-0.04603529,-0.018911779,0.032799713,-0.0080048125,-0.0104995165,0.05674409,-0.046106882,0.107504696,-0.1283542,-0.051810447,0.09731456,-0.011317555,0.03388721,-0.09467503,0.005134861,0.032433696,0.08003123,0.017348366,-0.011067047,0.023222316,-0.00582776,0.0031732852,-0.07144952,-0.015429666,0.016153779,-0.021067973,-0.044242594,0.046650473,0.044415567,0.003300833,0.01222082,0.014857501,-0.04786938,0.04870017,-0.026935538,-0.03483169,0.018164657,0.07747148,0.10680353,-0.0024664826,-0.03194604,0.027980264,0.0054929955,0.050718658,-0.1105072,-0.08851798,0.027211584,4.475018,-0.022804966,0.035857324,-0.010303312,-0.033138976,-0.18064305,-0.051378585,-0.048693217,0.19910541,0.027782308,0.1387039,0.02403507,0.022032721,0.031582907,0.06217619,0.21618429,-0.11172484,-0.06831585,0.07296361,0.057224087,0.4149226,-0.0060161026,-0.07537497,0.049585637,0.011364375,0.027036507,0.07404663,-0.11451144,0.013402602,0.14513078,-0.03783451,0.0017865959,0.024117542,-0.09952316,0.022791605,0.037246164,-0.013352465,-0.016255451,0.0384159,-0.030129237,-0.0076716114,-0.11319089,0.004884904,0.0031189471,0.059377134,0.00957195,-0.21195617,0.0015517137,0.011550179,0.054630656,-0.07163172,0.004593349,0.04184443,0.05532161,0.2535997,-1.5915911,-0.022260653,-0.00079038716,0.051974975,-0.014968898,0.054655157,-0.03255353,0.02757453,-0.011973445,-0.13619475,0.011418203,-0.05059689,-0.008448066,0.114415884,-0.010571063,0.060699444,0.0127403345,-0.030201646,-0.08570826,0.09135166,0.024520347,-0.037082665,-0.05938101,-0.01816355,-0.01026163,0.0144862365,0.09306116,0.018656986,-0.02344772,-0.07317912,-0.021580266,-0.05872079,-0.013926878,-0.0052336,0.09762487,0.045789454,0.02662732,-0.03665535,-0.02210373,-0.01570491,-0.016746325,0.0030949125,0.005841449,0.035818003,-0.029992588,0.041474506,0.02902666,-0.09348159,-0.076413386,-0.063013844,-0.008206131,0.021204948,0.04500923,0.017077185,-0.0050572734,-0.015836101,-0.008173067,-0.010362282,-0.0049927062,0.071941204,-0.03421482,-0.08772261,0.05642929,0.084630355,-0.07651507,0.03462617,0.005646057,-0.044194203,-0.08880388,-0.011387034,-0.009198746,-0.04750152,0.10374625,-0.07882379,-0.088522896,-0.01659488,-0.041925494,0.018326612,-0.051913425,-0.14174083,0.009425152,-0.12209093,-0.02660375,0.0047735223,0.00034900068,0.046993818,0.051507812,-0.020460222,0.055013366,-0.012259882,-0.03833064,-0.060632724,-0.024680486,-0.094649956,0.111617364,-0.002176466,0.006228574,0.021621756,-0.050253294,-0.06956177,0.026738776,-0.008156223,0.09409035,0.1334576,-0.05780794,0.006334354,-0.096679516,0.019363778,0.029319564,0.06412749,-0.04130304,0.0031636683,0.03223714,-0.018265082,0.06776421,0.04267107,-0.024279075,-0.014956244,-0.08355669,0.008302544,0.06481761,-0.11867614,-0.00045279556,0.063195035,0.04094976,0.023742156,-0.057833135,-0.011770933,-0.014270188,-0.061426822,-0.022621306,-0.0016974219,-0.079926684,-0.04662037,-0.06475001,0.114119895,0.008095447,0.03071618,0.0017002672,-0.0007860437,0.042147454,0.09641768,0.0053464593,-0.046217654,0.02107397,0.05406537,0.068444766,-0.08211417,0.12647915,-0.039193865,0.017793894,0.09524083,0.024450302,0.079397745,0.07245927,-0.017349243,-0.11779613,0.14223512,-0.058144,0.023987113,-0.043449435,0.06747135,-0.04758147,-0.03759209,-0.05573413,0.024696589,-0.01518566,-0.10850625,-0.02729728,0.15314248,-0.060207136,-0.104845636,-0.041183192,0.05248863,0.00034769738,-0.016547285,-0.0012492769,0.041993443,0.031250935,0.010920889,-0.0018123823,-0.046234727,-0.0749134,-0.05972761,-0.010530721,-0.036264155,0.028936835,-0.05286821,-0.030201865,0.015254443,0.029002253,0.022172898,0.04035271,-0.042964358,0.040828638,-0.046042535,-0.089981645,-0.038269565,0.07525956,0.06705491,1.4
DSHAKRHHGYKRKFHEKHHSHRGY,-0.012231661,0.047835834,-0.03809895,0.049150787,-0.009024604,0.058257535,-0.059722178,-0.0060360064,-0.06621087,-0.0261627,-0.010218289,-0.09896408,0.005558518,0.08767491,0.15836528,0.0002448278,0.013574809,0.08550183,-0.0056776563,0.01303283,-0.01836987,-0.024107818,-0.014146656,-0.012336438,0.10114603,-0.017838746,0.08022459,0.070879534,0.011815663,0.09271179,-0.09646516,0.00088311906,-0.11670473,0.066894,0.15623198,0.0032544497,0.036439314,0.07042785,0.010944102,-0.05991084,0.064978905,0.024520643,0.03867712,-0.014952347,-0.04981839,0.05551819,-0.11172298,-0.04790254,0.038017116,-0.08743077,-0.0011766753,0.07508944,-0.04323066,-0.2859971,0.10166777,-0.060242884,-0.038057037,-0.14535096,0.016547618,-0.0027719995,0.11084263,-0.014968271,0.008090575,0.056694627,-0.10440052,0.008981848,-0.10859004,0.16121237,-0.030335424,-0.003374307,0.03804203,-0.0033355195,-0.11737393,-0.11783576,0.0677979,0.017164687,-0.024910657,-0.022716139,-0.17995712,-0.036048613,-0.03456356,0.06882836,0.047110636,-0.06129146,-0.021637546,0.017508673,0.06489352,0.17709072,0.11456461,0.008962666,-0.009220112,-0.031102479,0.029796353,0.041999612,0.041925926,0.12259665,0.19795367,0.009435088,0.07795298,0.012013614,0.054181695,0.032109465,0.065696254,0.03735987,0.038326465,-0.03813783,0.04927604,0.058424834,0.031242367,-0.036009397,0.018276008,-0.09564943,0.025531929,0.04267899,0.029469658,0.021402247,0.004597648,0.013308932,-0.02462958,-0.034543574,-0.0039541647,0.028188499,-0.045272954,-0.024280658,0.054368403,0.020168675,0.04779835,0.0027868026,-0.05401051,-0.09000427,-0.06363116,-0.015439132,0.039487388,0.053244356,0.016348299,-0.10808536,0.060567014,0.033538297,0.027187286,-0.018862505,-0.018745001,0.0053335396,-0.028883507,0.35649088,-0.14393708,0.5100861,-0.0012023372,-0.046227757,-0.056887228,0.012132819,0.010214821,0.008127859,0.024258558,0.030496363,-0.029084692,0.13642393,-0.017576648,0.012575208,0.06158547,-0.102356195,-0.031967774,0.050644793,0.106202684,0.038935855,-0.014381355,-0.060552675,0.006603225,0.0355908,0.08458425,0.068117335,0.056311075,0.09282932,-0.06598279,0.09570889,-0.09729952,0.016313741,-0.08219156,0.0012102566,0.009782657,-0.04027704,-0.0514101,-0.124140605,-0.0981073,0.06615825,0.02691972,0.054476883,-0.014746517,-0.062457934,0.0051201647,-0.09085559,0.042041454,-0.06340847,-0.01452456,0.009026452,-0.023337808,0.041124545,0.026183408,-0.02741711,-0.052337084,0.03898108,-0.047388203,0.06844048,0.021765206,-0.026459591,-0.03868022,0.008412375,-0.10384391,0.0062100464,0.009753502,-0.045665897,-0.115419716,-0.13664517,0.0318388,-0.030539151,-0.030047916,0.022005059,0.07239763,0.07860781,0.038706355,-0.04312987,0.1836443,-0.015519415,0.009764668,-0.0558417,-0.028145386,0.0435701,0.057801254,-0.07852054,-0.020830167,-0.0013346111,0.002203763,-0.023230365,-0.004918361,-0.03356428,-0.06557136,0.003606358,-0.19135669,-0.06356036,0.021553814,-0.006758853,-0.014429478,-0.09194873,-0.026319746,0.05943545,0.0024805912,-0.14345305,-0.015911344,0.07636669,-0.018736823,0.06708197,0.09505331,-0.050863598,-0.003300284,0.11972768,-0.062182,0.070613526,0.03727591,-0.033802126,-0.010308801,-0.07958868,-0.0027339407,-0.06645609,-0.054650363,0.060832758,-0.04366972,0.02483186,-0.097922124,-0.04344577,-0.03697624,-0.17382923,0.01381209,0.07739551,0.03453625,0.010184958,-0.055482306,0.4238302,-0.05018325,0.049414422,-0.033332247,0.083915755,-0.010559065,0.008249085,-0.061798513,-0.031159732,0.007145821,0.027590789,-0.0063739936,0.04484637,0.047933653,0.009771391,0.08467584,0.68818,0.06243133,0.058314048,-0.028116556,-0.02807904,-0.028521482,0.0043109963,0.018139316,-0.112317964,-0.12396341,0.025146835,0.028926887,-0.017704282,0.010688262,0.07820012,-0.085017644,0.026542135,-0.050186064,0.09124388,0.025570493,-0.009687967,0.039412297,0.017067643,0.031545836,-0.025835054,-0.00016787332,-0.09960559,0.103432655,-0.0630455,0.041503828,-0.020539649,-0.07475774,-0.05808002,0.018717865,0.07099356,0.016782414,0.0022490998,0.21311665,0.15188752,-0.028270263,0.060116053,-0.013517845,-0.051589854,-0.0387183,0.05944786,0.039776746,-0.072582096,0.022510529,-0.14995462,0.06993181,-0.008187326,0.07801408,-0.024345888,-0.075241014,0.07519763,-0.049261406,-0.00983691,-0.044207558,-0.03987009,0.05990064,-0.02547137,0.005988556,0.082680695,-0.042279646,0.057928964,0.17374104,-0.017313989,0.003651681,-0.16296476,-0.03881099,0.036330186,0.025719766,0.05434829,-0.123193264,0.027134974,-0.023786265,-0.11990083,-0.015503358,-0.041614797,0.018702563,-0.010375692,0.03380371,0.05954987,-0.064582184,0.0071446653,-0.068793856,0.07780724,0.10154644,-0.05312896,0.06878611,-0.060177106,-0.01972899,0.052524626,-0.048808977,0.06996762,-0.041075036,-0.09754788,0.041515265,0.011504164,-0.040311232,0.03732137,0.051103726,-0.046542384,-0.058655236,-0.1251335,0.044483576,0.0748573,0.018605584,-0.063308276,-0.076677285,-0.036368787,-0.026325999,0.13159281,-0.04324675,-0.045581456,0.025566926,-0.011266127,-0.017072598,0.045468047,-0.011916807,0.0045244475,0.04480532,-0.045020524,-0.057743456,0.03514075,-0.05773962,0.109041646,0.0052302824,-0.0379324,0.017409213,0.028177764,0.01061892,0.017202727,-0.09610108,0.06991264,0.04279605,0.015674332,0.04270738,-0.012846275,-0.018886466,-0.09883657,0.034195386,-0.016530039,-0.023846509,-0.18066582,0.010315671,-0.07095182,0.0015082379,-0.0631101,0.04151785,-0.008833287,-0.02790119,0.03971028,-0.0053834897,-0.0006570673,-0.016830487,0.02099089,0.05635113,0.04061744,-0.024408001,-0.00016742371,-0.015985398,0.06724031,-0.042869844,0.049276944,0.15517896,0.11333211,0.14981458,0.19587132,-0.025058148,0.012376134,0.02901624,-0.030848838,0.0036900016,-0.044359937,-0.06944799,-0.0014549554,0.08419686,0.06322861,0.08973444,-0.03691386,-0.0835259,-0.04990077,-0.0057436205,-0.006866462,0.038999036,-0.091969065,0.03982202,0.09800029,0.026356442,0.030406762,-0.03621794,-0.052992824,0.08229903,-0.046821233,-0.025103431,-0.059163827,0.020767527,0.005650525,-0.012553439,0.065338194,-0.045620248,0.07977091,0.11149451,-0.03562641,-0.027017351,0.0064242464,-0.04596907,0.31964895,0.041935444,0.0378064,-0.08105702,-0.09166469,-0.101862505,0.12077038,-0.022967054,0.002350859,-0.047103707,-0.031070111,0.056679036,0.10015317,0.018941453,-0.0720542,0.012425478,-0.012246417,-0.028005987,0.069564745,0.10339718,0.020561595,0.10636135,-0.015182508,-0.030362885,-0.019048564,0.047962822,0.0850226,-0.03499221,0.11844136,-0.05087206,0.07678422,-0.028762361,0.045065455,-0.04062758,-0.22081688,-0.019537952,-0.05738026,0.041688733,0.12692253,-0.08870215,-0.021220377,0.037382986,-0.01959734,-0.041221004,0.04222172,0.050341167,0.066314735,0.06915732,-0.04118141,-0.05485002,-0.05420222,0.10951119,0.13583207,0.00058878463,0.07464056,-0.04698855,0.06840494,0.013806736,0.053341802,0.09273494,-0.079413705,-0.12246593,-0.0333588,0.004460701,-0.12560235,-0.021462262,0.009505864,0.19898011,-0.0048695602,-0.017178617,0.1114731,-0.051980853,-0.068123944,0.051698208,-0.054045517,-0.0012590415,-0.014977084,-0.07968864,0.047450684,-0.03213651,0.02313792,-0.06456631,-0.024800597,0.023410678,-0.05684354,0.055439804,-0.08001738,-0.04993479,-0.03370235,-0.025596406,0.053866856,-0.1157688,-0.03762512,-0.12789658,0.061549492,-0.0641445,-0.076485805,0.007303286,-0.0006118474,-0.015615293,0.007588068,0.03159833,-0.11205233,-0.0455964,-0.021723513,-0.059254408,0.00044304447,0.004894622,0.05425713,-0.02673481,-0.09512349,-0.058560234,-0.0684234,-0.012705375,-0.062037706,-0.095705755,-0.012585232,0.08224892,-0.015622878,-0.07806267,-0.06576578,-0.0131541835,-0.020670172,-0.007201644,-0.025122257,0.009415064,0.051972188,-0.035815984,-0.011642837,0.015531315,-0.005698663,-0.042116538,-0.105179034,-0.12700698,-0.043001983,-0.01783724,0.07243135,-0.14327271,-0.11998624,-0.08147737,-0.015472284,0.041964594,0.013154337,-0.004059366,0.0129543645,-0.025595423,0.03572779,0.023656407,0.02594033,-0.0058379415,-0.14522998,0.020899523,-0.09331392,0.074385054,0.068778,-0.09091226,0.03868212,0.005659177,-0.15818764,0.06481296,0.02960609,-0.07710229,0.023488482,-0.04303815,-0.04219909,0.01201261,-0.039164636,0.060549285,-0.026051842,-0.015830189,-0.02824854,0.07254545,0.15304519,-0.10490722,-0.0104456525,-0.07230188,-0.040800177,-0.031176997,-0.06989106,0.10444012,0.038124897,0.008809975,0.01193067,-0.0451748,0.011850942,0.2644444,-0.07648899,0.05437552,0.026808063,0.035373252,0.030459616,-0.04501275,-0.046167172,-0.02359681,0.029973479,0.05974279,-0.031774502,-0.02164911,-0.08089953,-0.013838655,0.027813999,0.036750596,-0.02953476,-0.0689655,-0.062147863,-0.0019178425,-0.08685655,-0.05369733,-0.05337045,-0.011625504,0.008566387,-0.058039494,-0.08630802,-0.0010676573,0.0976018,-0.052349303,0.013932829,-0.27077895,-0.12552795,-0.026136627,-0.1458578,0.06434402,-0.057288013,-0.04603529,-0.018911779,0.032799713,-0.0080048125,-0.0104995165,0.05674409,-0.046106882,0.107504696,-0.1283542,-0.051810447,0.09731456,-0.011317555,0.03388721,-0.09467503,0.005134861,0.032433696,0.08003123,0.017348366,-0.011067047,0.023222316,-0.00582776,0.0031732852,-0.07144952,-0.015429666,0.016153779,-0.021067973,-0.044242594,0.046650473,0.044415567,0.003300833,0.01222082,0.014857501,-0.04786938,0.04870017,-0.026935538,-0.03483169,0.018164657,0.07747148,0.10680353,-0.0024664826,-0.03194604,0.027980264,0.0054929955,0.050718658,-0.1105072,-0.08851798,0.027211584,4.475018,-0.022804966,0.035857324,-0.010303312,-0.033138976,-0.18064305,-0.051378585,-0.048693217,0.19910541,0.027782308,0.1387039,0.02403507,0.022032721,0.031582907,0.06217619,0.21618429,-0.11172484,-0.06831585,0.07296361,0.057224087,0.4149226,-0.0060161026,-0.07537497,0.049585637,0.011364375,0.027036507,0.07404663,-0.11451144,0.013402602,0.14513078,-0.03783451,0.0017865959,0.024117542,-0.09952316,0.022791605,0.037246164,-0.013352465,-0.016255451,0.0384159,-0.030129237,-0.0076716114,-0.11319089,0.004884904,0.0031189471,0.059377134,0.00957195,-0.21195617,0.0015517137,0.011550179,0.054630656,-0.07163172,0.004593349,0.04184443,0.05532161,0.2535997,-1.5915911,-0.022260653,-0.00079038716,0.051974975,-0.014968898,0.054655157,-0.03255353,0.02757453,-0.011973445,-0.13619475,0.011418203,-0.05059689,-0.008448066,0.114415884,-0.010571063,0.060699444,0.0127403345,-0.030201646,-0.08570826,0.09135166,0.024520347,-0.037082665,-0.05938101,-0.01816355,-0.01026163,0.0144862365,0.09306116,0.018656986,-0.02344772,-0.07317912,-0.021580266,-0.05872079,-0.013926878,-0.0052336,0.09762487,0.045789454,0.02662732,-0.03665535,-0.02210373,-0.01570491,-0.016746325,0.0030949125,0.005841449,0.035818003,-0.029992588,0.041474506,0.02902666,-0.09348159,-0.076413386,-0.063013844,-0.008206131,0.021204948,0.04500923,0.017077185,-0.0050572734,-0.015836101,-0.008173067,-0.010362282,-0.0049927062,0.071941204,-0.03421482,-0.08772261,0.05642929,0.084630355,-0.07651507,0.03462617,0.005646057,-0.044194203,-0.08880388,-0.011387034,-0.009198746,-0.04750152,0.10374625,-0.07882379,-0.088522896,-0.01659488,-0.041925494,0.018326612,-0.051913425,-0.14174083,0.009425152,-0.12209093,-0.02660375,0.0047735223,0.00034900068,0.046993818,0.051507812,-0.020460222,0.055013366,-0.012259882,-0.03833064,-0.060632724,-0.024680486,-0.094649956,0.111617364,-0.002176466,0.006228574,0.021621756,-0.050253294,-0.06956177,0.026738776,-0.008156223,0.09409035,0.1334576,-0.05780794,0.006334354,-0.096679516,0.019363778,0.029319564,0.06412749,-0.04130304,0.0031636683,0.03223714,-0.018265082,0.06776421,0.04267107,-0.024279075,-0.014956244,-0.08355669,0.008302544,0.06481761,-0.11867614,-0.00045279556,0.063195035,0.04094976,0.023742156,-0.057833135,-0.011770933,-0.014270188,-0.061426822,-0.022621306,-0.0016974219,-0.079926684,-0.04662037,-0.06475001,0.114119895,0.008095447,0.03071618,0.0017002672,-0.0007860437,0.042147454,0.09641768,0.0053464593,-0.046217654,0.02107397,0.05406537,0.068444766,-0.08211417,0.12647915,-0.039193865,0.017793894,0.09524083,0.024450302,0.079397745,0.07245927,-0.017349243,-0.11779613,0.14223512,-0.058144,0.023987113,-0.043449435,0.06747135,-0.04758147,-0.03759209,-0.05573413,0.024696589,-0.01518566,-0.10850625,-0.02729728,0.15314248,-0.060207136,-0.104845636,-0.041183192,0.05248863,0.00034769738,-0.016547285,-0.0012492769,0.041993443,0.031250935,0.010920889,-0.0018123823,-0.046234727,-0.0749134,-0.05972761,-0.010530721,-0.036264155,0.028936835,-0.05286821,-0.030201865,0.015254443,0.029002253,0.022172898,0.04035271,-0.042964358,0.040828638,-0.046042535,-0.089981645,-0.038269565,0.07525956,0.06705491,1.4
